573 15
boy_name 0.03231546398636819 0.06336214969901474 0.0353231674719088 -0.1408566320788357 -0.04741653372046761 -0.10733917490114775 0.07897029245123457 -0.009581830498782284 -0.1659056693389073 0.012379773070557288 0.0777928208893979 0.040587761747474214 -0.09467640176412179 0.019182887530385606 -0.03250608716718538
girl_name -0.07310441023846052 -0.09916532361688413 -0.0675485099139383 0.13681892486285263 -0.09276456864295803 0.1388747905680818 -0.07791842015373537 0.023614792962048773 0.15834509988876905 -0.024241543508154786 -0.11490377933165376 -0.02331889542963809 0.05162394164854729 -0.041839678118330094 0.03115993247312082
mixed_name 0.39836431181159315 0.05807933449764667 0.21489037153044335 0.16770628498017603 0.6260572046327159 -0.022867876491521225 -0.04645427516313746 -0.04082914422311721 -0.13349662630346879 -0.13136765070069323 -0.012544597663548825 0.15643286853406066 0.17269036911375304 -0.14618524446813572 -0.08712512849272196
benin_city -0.10198343324951796 0.13563552547480903 -0.045810103685872586 0.12353476104897781 0.37491865066989283 -0.18639597236958758 -0.11349388844736662 0.3266858870273516 0.33433262982269213 0.017334544283763405 0.10712056140843379 -0.030812317070765156 0.06286698032261968 0.30057445370195685 0.5956850785484202
body_part -0.24290362754208136 0.255032986885653 -0.35110221356798627 -0.2329518038765743 -0.0015042930792913936 -0.09674745254931287 -0.17298466888654668 -0.3512712477434133 -0.03489984493656149 -0.06283922855052015 0.02225286101058466 -0.1070193090502212 0.5855864031898127 0.2694252402021737 -0.23470772372084847
month_year 0.29922555588255795 0.3342218010967385 0.2629215942279599 -0.06662822590988945 0.10671330775386836 0.3350121768359338 -0.22463581814896116 0.04498977034477229 0.49079307698419183 0.08326234005755025 -0.06804627339043058 -0.2017762110487316 0.38591922685551516 -0.2632518049800375 0.1392416532267051
day_week 0.11944772507283041 -0.16586853522066516 0.5906360001906698 0.242400898121115 -0.0965976192765807 0.4401725574487915 0.07279043448813839 0.2775234853105384 -0.004568347047880022 -0.050226601615756726 0.14556695849712653 -0.009691035821043813 0.08812788804300441 -0.47208105564193775 -0.0523646889581179
akouavi 0.3950539111250493 0.12189147476519095 0.07878339210061112 0.3717569460854504 0.7037310461461833 0.0999880275265127 -0.12164951878272044 -0.08511769470602351 0.03682159218248517 -0.15648751677662448 -0.022874756614611975 0.039691885320960976 -0.030033861107790823 -0.25239707567164216 -0.21717960209913503
alihossi 0.41107035951765036 -0.2734396537692378 0.02228928331055417 0.2590200718638426 0.6483092013642104 0.14614880345950182 -0.08762935865452613 -0.11050160796890973 -0.06419405559506475 -0.09192540562930289 -0.06371228940340426 0.23955083422942772 0.26500339720278454 -0.24854722705656881 0.06608701400022678
afiavi 0.0923954344458651 -0.00041335512532845634 0.48967531173737155 0.3323180849995599 0.3591391583494159 -0.033246359112003666 -0.3645340158121596 0.016717762032004597 -0.009617974892072459 -0.3484722873788362 0.21003001477530434 0.2832053034293425 0.2150309931521715 -0.24187634765956467 -0.08098141278277775
sɛ́nálɔ̀nhǎn -0.002550983721364585 -0.3902197278882496 -0.19997638861378142 -0.3348249428322539 -0.4442527557683047 -0.1773652684614608 -0.1960719026576372 0.2349770296726338 -0.10933329233667818 0.4201504905685094 -0.3166593466701902 -0.14718545984002215 -0.12801803201656042 -0.14102325543428007 -0.10473426343928262
hounon -0.3250144585870636 -0.13968655535549784 -0.40740135104642605 0.0006169747072709164 -0.09310401992486872 0.013393472556823868 -0.03993374837254521 -0.32218569001475506 0.1464855363921137 0.342713597245138 0.006348914807605055 0.3868275613599115 -0.5152290943441427 -0.06038683509261013 -0.12435076417108873
tossa 0.5180437220401625 0.1000764326017059 0.3014178171351789 -0.042806050345867146 0.5375443959685556 -0.10041679348496567 0.0685206200087582 -0.20294322664096784 -0.3247316232523928 -0.037846321728824864 0.014366866150863048 0.34897247598483694 0.11140481157437877 -0.09501817963191617 -0.09796832834724563
tchaourou -0.08405817435631087 0.15681562182118214 -0.04858437495545699 0.1333732721859362 0.3684921716751369 -0.17447240601759764 -0.12914793254228915 0.3661114021514014 0.3429137496423979 -0.00574595174228176 0.13081116043021598 -0.016213270247135418 0.05506528218034572 0.30940548458012634 0.6282140372045207
tɔ́jɛ́nnányí -0.1287002057120377 -0.14898677682571243 -0.22605304952096653 0.17828362211286994 -0.2224056473567875 0.41264548869916423 -0.25110209222660823 0.2957214667063299 0.37947116521332547 -0.09148450383824619 -0.2264107466552477 -0.2515963234924725 0.2530606625727211 -0.412434108194921 0.0342167130772863
naégbè -0.22860049072806332 -0.11916417696975809 -0.21750182231178897 0.41970275733166434 -0.14139973845889295 0.5047072285968871 -0.11384998372986918 -0.003448251616198219 0.4382392429085694 -0.29223474610871214 -0.36544203308230516 0.002372071924850196 0.053261676655905664 0.023101495092266666 0.05997445655226834
cejɛnnáhú -0.2322249749107148 -0.36573223535455673 -0.3671983344101958 0.2875306761219679 -0.3605848885328474 0.3110451238431715 0.17049984761927697 -0.07190335015459409 0.5046352251923356 -0.19730295693066374 -0.026133415616999178 -0.03983122867470435 0.03669932187176217 0.04386738985438544 0.1660053060705964
ayícemɔ̀ -0.05342601383199873 0.23372855275439233 0.13759749152683048 -0.35032267770331815 -0.14487507678667033 -0.501747575391701 0.1634094351082461 -0.26576621474295153 -0.525227457876924 -0.12669184781532308 0.0003712582232700044 0.2516552384862582 -0.0021572456376184887 0.15951700049529027 -0.21104318501363556
abɔxwisun 0.3020165185070181 0.33675948350717133 0.26523951853424316 -0.06601020167031833 0.1070862904459516 0.33878132833280955 -0.226335611270754 0.045146368156492776 0.49499307233910983 0.08425683259848878 -0.06895503468876119 -0.2036010008308551 0.3896177334195402 -0.26580702716695537 0.14041738639395362
fifonsi 0.1745492442695045 -0.3056288346391037 -0.09624867738474376 0.15864470742194658 -0.43759420484872624 0.4924144194457067 -0.3242302862384014 0.10904151432581537 0.18071918952273888 -0.06791160044304798 -0.41448390810649455 -0.11350135052919735 0.1571503418873684 -0.1959641117340252 0.019811527989648883
tɔ́xwényɔ́ -0.015511105200908641 -0.2647360469753353 -0.26617514727817976 0.4887450180612926 -0.3057719292054316 0.38189503571123423 -0.11772774767947615 0.06016341407754374 0.1811820967904704 0.008719990386131277 -0.5570301389774353 -0.07879466957526077 0.07822998792416659 -0.014442228188947772 0.05529118388831113
houeto -0.13998566288568268 0.30370007740808996 0.1562496959559408 -0.12593234104671042 -0.0375137043713864 -0.34704249316682 -0.028439974646911812 -0.1874929084079558 -0.2225987166133763 0.04182891693898982 0.19008154436316863 -0.13921371399673466 -0.6261780511082637 0.1953520665924458 -0.3826710341455394
kɛnnyígbɛ̀ǎ -0.3560203703399164 -0.4793835593603384 -0.23785909980744338 0.12469007408212042 -0.3068991647882532 0.31593237153975323 -0.16134956901292236 0.16694261050809225 0.3907689573339698 0.19663925575535993 -0.3309681167373976 -0.08332198587961885 -0.05907447482450607 0.04404146121532153 0.07344840318963827
hountcheme -0.10261264434242964 0.11825837604746574 0.17288093454482606 -0.5690632162068927 0.2450743707402091 -0.3734581079775634 0.3500897451903912 -0.07684686592096857 -0.311114512228855 0.11232330180848114 0.27979045183179074 -0.056061393937532865 -0.23566637597149365 -0.19158965656655197 0.0727870251042314
kpatinvoh 0.46922563545632645 0.06755727922445572 0.2614083756908117 0.16114791406017026 0.6840946075435794 -0.00262625221506649 -0.020521696711462246 -0.14859029291159626 -0.1859086666268104 -0.12512871739861658 -0.04508384108599496 0.267521380600783 0.2067892461649589 -0.11840761709608989 -0.07996781634516555
alɔcejí 0.04032122223549126 -0.19121043289097095 -0.09794739098345052 0.3804999163472985 -0.2333704542054071 0.28901706205972966 -0.25278093181437455 -0.03547534842335015 0.5513408988615928 0.23043088686202476 -0.2653060240077271 -0.34344065048352446 0.058280105202094694 -0.19279459138802071 -0.11428373799821685
fifá -0.0040817036237948525 0.15277656818709967 0.12003374940225221 -0.48138518373794803 0.10200475260576661 -0.29246969322099853 0.12970914358923302 -0.0008137152040066649 -0.3465879264558389 0.2427497294703176 0.4893316483879107 -0.17442523097681062 -0.37764814565266613 0.1429242639626932 -0.019418988481989852
mahuna 0.47663365917766015 0.10378041644159816 0.2403405018549256 0.203042219866737 0.6972486751176159 -0.00538734629796355 -0.02041905693375826 -0.048151674577407454 -0.1744673393940245 -0.1907484658617088 -0.07155248492925496 0.1570154188038136 0.1989567897611338 -0.12799334221588016 -0.14033786648608434
bìnyɔ́ -0.05514140016724596 0.3394685922086004 0.24966331524919874 -0.3485210562808569 -0.08983512709824856 -0.3644455536025639 0.29436241714212813 0.20992326649857584 -0.2532812181962498 0.039093637773293395 0.1602946446114327 0.2587435161083733 -0.22887643614007505 0.43623263438348586 -0.13980749825278324
agonli -0.10903833938910708 0.12394764130186535 -0.03436321935929198 0.1328126157414104 0.40140309207390684 -0.1965987172139802 -0.13323214812056328 0.3234334322522828 0.3416443780146486 0.03506452953917507 0.10265779961943829 -0.0413421472663442 0.07210366409312015 0.31472125826671254 0.6291224227562954
minyìgbɛ̀sù -0.24818793024767855 -0.22581354976711762 -0.22466353296180727 0.5769014438168485 -0.15406395867410058 0.3173611379016198 -0.12645119935985377 -0.15619733561743157 0.4171194337261264 0.06520507008219792 -0.19316180539886516 -0.27724007583165133 0.19296261363790937 -0.015895045933925312 0.06961987699668513
wõgbonou -0.10257746365024176 0.129745273419899 -0.039935164251992256 0.13168679759246604 0.3858778336130007 -0.1976761773248081 -0.11759271314677235 0.34919496634118485 0.35379896828181223 0.013319773745938747 0.1235071993153774 -0.02465593882737508 0.04047370550458599 0.31560279567200544 0.6215840765813195
djidjoho -0.0866329828491026 -0.286580878802482 -0.3028719951836439 0.5047872987845431 -0.025530248092756114 0.27075508163734496 -0.09084696396112298 0.22240269094898094 0.32830799536283733 0.1772671696805623 -0.24648027858903865 -0.3632652735531731 0.21943363119868248 0.11034495771142942 -0.1801778505561026
dɛ̀cegbè -0.036863691334181395 -0.23902623663733485 -0.018178816027683085 0.2584379393204021 -0.23700840183328817 0.30816338707728047 -0.22210859045818407 0.14222801453006642 0.3646298557575498 0.24440673532942014 -0.5464311662290166 -0.07138930637024951 0.25967559722018724 -0.19402489158687045 -0.21655754100431243
fifawah -0.41923155559017916 -0.2104024596625135 -0.3295215008004963 0.5616829191803014 -0.07021228708065257 0.39245020748074133 -0.13937724955922412 -0.09102522609440622 0.3560464489237923 -0.0756159277132527 -0.038288048176851636 -0.13616996627265318 -0.005469759691863862 0.09591955661256643 0.0571534477717463
akɔ̀jɛ́nnɔmɔ̀ 0.044895114654217715 -0.3327969953723977 -0.11337792559944679 0.5268565065460139 -0.44977024107630414 0.13727456263191937 -0.3053391687956937 -0.009054735289799689 0.21889253077343548 0.029845538535509576 -0.348356101842116 -0.24702774204975558 0.03861372619020199 -0.21053595149100013 -0.0189958186733784
dégnitché 0.0070530438244969865 -0.022834947900097782 -0.009681708764308562 -0.651240610508702 0.021858585132163554 -0.296424189868826 0.2545080864805905 -0.028261678771359884 -0.24329364446200655 0.029384676974374694 0.15395045254714557 0.1993404644747906 -0.39271358994457517 -0.0767885435118487 0.3636549902141665
alịnmɛn -0.24124820021747137 0.274551207255303 -0.3564167337514691 -0.2354934261603377 0.00720476636298539 -0.0958888827848975 -0.1806822302648501 -0.3602253337281705 -0.030143751952278565 -0.06520661003548757 0.02079568107975198 -0.10670561365602957 0.5950788055060657 0.28548798860156355 -0.24160226987992584
sena -0.12813949618573434 -0.3651664312844028 -0.23624796349897867 0.26007824758718645 -0.20546348935584338 0.4198646719063504 -0.3937659655634395 0.16175234241667621 0.276396096641477 -0.24535449307456444 -0.16415766643801682 -0.16065189578515407 0.288337074077326 -0.10084983727609233 -0.2008037923198598
fifa -0.2110789403235499 -0.15566812212085288 -0.3594662189845292 0.4283810414061221 -0.2896681785327821 0.49616801069157457 -0.07054557567379115 0.07517318258710241 0.26225107909474416 -0.16163176933888318 -0.08031845898940279 -0.05541292798344646 0.21747888267011953 -0.12096417900523208 0.32478694451498535
somalin -0.14076428637159932 -0.32943494610083957 -0.28136001140834027 0.21582406024215317 -0.4228287199322321 0.5216131253836709 -0.29855386288707075 -0.09241778043889684 0.16824766324103724 -0.17644720655571555 -0.31809637175322536 0.09060432393609734 -0.11651716854602745 0.03688947611143425 0.09257894447467852
kanfonhoue 0.17852520509409261 0.13699101611305214 0.021958477062287436 -0.1141357444987833 -0.12509509237170477 -0.2535968763820616 0.4429397376886508 -0.2406733256788755 -0.2884779652809709 -0.0802183117532062 0.3192368431246171 -0.23078420253409304 -0.47876592271491236 0.07416621028358782 -0.3434331173614158
kouandé -0.09687469511087217 0.11614507538435302 -0.05137943345172932 0.1359826692448851 0.3726018727213997 -0.18541273720841633 -0.10885442316092787 0.3598349935236268 0.37334749656480465 0.0338230239625493 0.12494707548407093 -0.05086268297484944 0.06040414427246651 0.30564166818864485 0.619780488564236
djivede 0.29840976274989844 0.24728203429275217 0.0758606883394256 -0.509262370685634 -0.371185088357096 -0.31506514819558895 0.25894922909703383 -0.036521637557075846 -0.16980022644273574 0.07550420319231994 0.33345400197546515 0.11135173119546793 -0.2950540929670221 0.09012324427954213 -0.14474870088565475
gogotainkpon -0.11309571471353733 0.1332378280573234 -0.05289763789618627 0.1307259787645468 0.398123355578665 -0.19952329693423254 -0.10158878177043618 0.33759356172421007 0.36218521509930557 0.021354930684716094 0.10593516332674734 -0.03806023191064161 0.06691312423377314 0.3133177665920272 0.6154475178695662
akpɔ̀ciyě 0.04436105043712255 0.08482389935225829 0.18343087299104913 -0.4942438478895747 -0.09512619136180307 -0.45397498496042255 0.19864942169359256 -0.1993876143080847 -0.5341746643600574 0.22913986102703227 -0.0528915240792112 0.17152608206708234 -0.1498148246972778 0.13027547674405524 -0.05797412684264857
doyigbè 0.0330741664701475 -0.02283287074855018 -0.005434633053782884 0.270132328040167 -0.039082261823357015 0.5106300421344869 -0.2476157059258565 -0.2054698579512695 0.6018638482427725 -0.01088146453142967 -0.2945620321090252 -0.15368853649642547 0.16933990467856408 -0.1657960013222551 0.15962270553190974
woosun 0.30121289812038227 0.3366569954129974 0.2683697457785887 -0.06768404051384395 0.10423805925498499 0.3369060566826466 -0.22387200230424154 0.04291780500842759 0.4944515466623603 0.08930195451734234 -0.06419504124069965 -0.20430168615970373 0.39089213789229543 -0.26511158468414275 0.1431382766976106
kèmi -0.03448736671249898 -0.26115148323071635 0.02429161090816135 0.5586611210584551 -0.24012749372212913 0.5795865384649754 -0.16868399304539466 -0.021271581402263512 0.30635584605544774 0.1052725189771381 -0.12905399098170484 -0.0077538869278438085 0.13411851357798252 -0.2249379644263091 0.007155935561588849
alɔvi -0.2577980545267507 0.26400097802079237 -0.3596983499500403 -0.25903424942915754 -0.007609913423289436 -0.10752978090596574 -0.1515470807942696 -0.3525117423563033 -0.04019791721253851 -0.059800849462356635 0.039143610161309364 -0.11561766146489075 0.5856733848382516 0.2853927831806959 -0.24967632915237534
gbɛtɔ̀nnyɔ́ -0.14581212013573217 -0.24613754202900184 -0.14660672271533062 0.2093921145341919 -0.15452715729629207 0.5164411288084392 -0.07308739388507321 0.33676112303004774 0.49882344579648114 0.10195211968147394 -0.352411678645776 0.1201488215805641 -0.12254610645399668 -0.09703558881451908 0.12130525025552936
tacegbè 0.06013002941067069 -0.30108428966150624 -0.2202571377816382 0.2965775866251386 -0.33952297877068216 0.2546213994539165 -0.23323653208184933 -0.03951310755575852 0.22257221356545046 -0.09533382519663476 -0.4078114963432722 -0.4132204885362641 0.18020295165116001 -0.308052667653986 0.08466465387533303
sɛ́núwa 0.22866412588986984 0.2817486458737631 0.033654410906227915 -0.4790751313371308 -0.2658102946863717 -0.1470311954770218 -0.11702527661676443 -0.07005893566536378 -0.4870920382011753 -0.3436752155359896 0.10028639728705506 0.17283786487616884 -0.15646261320010252 0.19530742332737955 -0.25027139587952735
adɔgo -0.23556240242795043 0.2677760970197352 -0.3458456421654344 -0.22938800451855454 -0.0016836529712172445 -0.08993831024507071 -0.18691216598218474 -0.35705942100334687 -0.039731461331284856 -0.07095439173173862 0.004265077157679949 -0.12458193097922957 0.6012568439749301 0.28907004536097214 -0.2475343073790538
letɔnɖotè -0.13866475530118494 0.08720281089043277 -0.28224642879042133 -0.5476739952114246 -0.1301057177129675 -0.2252128728106583 0.11821499866801817 -0.03249699125142722 -0.5280447031082997 -0.051628374446177024 0.34173663484824324 -0.16066903249517014 -0.18696293028307023 -0.21708246817175547 -0.013226785121696434
mɛɖémɛ̀ -0.09681722791519913 -0.1228219834978625 -0.3027376215171821 0.29198168739475516 -0.39269389202664085 0.488174349651076 -0.16398822879941394 0.1828393705584177 0.30516771187667546 -0.2703259700142941 -0.2751565249124558 0.08033882794582087 0.00447919243278468 -0.1030896696883404 0.2850663452926961
aɖinyɔ́ -0.004833843752176193 0.05759552057573728 0.011614571894993755 -0.4649207830146308 -0.017177124620891715 -0.2213045558482897 0.6166834060324733 -0.04757810400756251 -0.3093932797412638 0.20223968316751662 0.3054587183169546 0.26536063350433436 -0.03865228847527508 0.1524947449778841 -0.13430704919674355
akɔnta -0.24773208322393936 0.26293169498083224 -0.356758823385148 -0.2438460978228771 0.002616615099258624 -0.10169656745745459 -0.17733454652326608 -0.36426830678104843 -0.044563291254631494 -0.06030830190173323 0.025902489112145325 -0.10881304937507819 0.5973640576321265 0.27460786427957035 -0.23936721214114576
agbomè-kandofi -0.114307253968006 0.14300800869581726 -0.05604329402727071 0.12543840614784066 0.38250877798741123 -0.1891372909189545 -0.1107374180205048 0.34761787658413157 0.34793000254700457 0.01750038452916782 0.11872253531116793 -0.03702397234135571 0.06985516282695593 0.30830644884968256 0.6281455540649569
bǒɖéɖèǎ -0.28028116612288817 -0.21000656304440282 0.1432328486156613 0.4511948372306068 -0.24473951761597493 0.2945073307715747 -0.27123433936784375 0.12873668543761732 0.18752453883241427 -0.04666740763441767 -0.3915288603325107 -0.07531683498014795 0.21910664805627586 -0.3280056088967181 0.2438637012691292
sègbégnon 0.18220308861364642 0.08856016717844312 -0.043389731797431365 -0.545978158848276 -0.10399728187393245 -0.3098265020078529 0.1586910614539162 -0.20630029545290132 -0.19791601197833056 0.2910866021992576 0.44477452572121573 0.294012679778653 -0.22441595694928113 -0.1090758977115616 0.10038086371574098
vínyígbɛ̀ -0.10652572415075243 -0.349481920338388 -0.22292046740007826 0.3665927874145712 -0.26540596275331707 0.5176800748569342 -0.30229397151934995 -0.19598295512510905 0.2860658833096287 -0.06190924542730151 -0.14058128645401807 -0.1317998161020187 0.21195348939053094 -0.17604750743153869 0.10549384835799243
mawukoná -0.1879913221261515 -0.3000694152192567 -0.1515578970487593 0.1848849629278303 -0.5639845367092468 0.42784178595901284 0.009750583096684994 -0.10855931582333331 0.4472205701729669 -0.08276626150268554 -0.0662685018346827 0.21878705417236297 0.15307867349654472 -0.0729615836709131 0.10735410327474378
eglókɛ̀n 0.008698669622957879 -0.12180549250601509 0.14497478834887148 -0.23435371395341695 -0.2057469819440657 -0.2319918822494748 0.17264942495471208 -0.14187059501353996 -0.5636942536350774 0.008129907462026135 0.2817122820342404 0.10829441231462021 -0.37386723199672567 0.41191266770960755 -0.196038189139243
unnálɔ̀nhǎn -0.22361700311226199 -0.018157935102110844 -0.14299462665984647 -0.36049061820775363 0.050079217671138855 -0.21457050783543286 0.17673929983711467 -0.10098151620085781 -0.5415085809995848 0.22264189657540384 0.5000662682711013 0.11113458611783272 -0.29427138849238954 -0.06538150991765722 -0.09704507753398342
bonon 0.09176732322716288 0.16264983482339115 -0.07833509349895171 -0.46260220119548884 -0.22708700000848456 -0.16521843111085785 0.3732207587952273 -0.2198795899214254 -0.32005182814143046 -0.09059549706214519 0.30523159265423794 -0.15855566691049053 -0.34657454164734963 -0.2225054155526915 -0.27384787090079143
gbeceɖì -0.42220128738098667 -0.2925983173410842 -0.08193520855387774 0.15677624063136422 -0.1092060917207819 0.1326651379456716 -0.13614918673294768 0.2106891082060946 0.3911048219695949 -0.11865743346525516 -0.38290910950778934 -0.2945901024681431 0.21492357979408472 -0.3763936156697217 -0.12323665155360791
ɖagbèwá -0.07874900148954457 -0.34910464307248684 -0.44520519720341517 0.2567962191294093 -0.5062380630153065 0.2820647675058059 -0.24872194841097361 0.17268869545283153 0.27308868192735075 -0.01679421741785448 -0.0959728702553774 0.01431521605149893 0.22753124694454102 -0.16710476404771782 0.10935726561106521
fènou -0.012991837444421096 -0.1518589390800646 0.013577162224276117 0.23262821844441725 -0.22102697167990998 0.441114355953791 -0.3105296649988341 0.20334293638306275 0.6603107902053997 0.09442546433762404 -0.2508028549556358 0.006522642822298918 0.0037284633015412516 -0.03963668253525286 -0.16445138874896567
gbedonou 0.333798622388745 -0.05399175990404349 -0.05107420097698287 -0.2799270048031669 -0.3437893830409848 -0.2623885698883835 0.37819282481014865 -0.37359338628470673 -0.419859433804244 0.19178559117229804 0.08356159199955464 -0.05467360424598838 -0.30663975153760564 0.011484834915982869 -0.11076479556269053
boukoumbé -0.10781657256092397 0.14433787448194035 -0.04390043955814985 0.12767852328184093 0.39792520808235743 -0.19031428778823972 -0.12138780978408925 0.33749038827481764 0.34329767970536307 0.016404942050302268 0.1104485649024944 -0.029674430385184178 0.06937749181826498 0.31144873709774 0.6258050996388524
houefonde -0.09567997405270541 0.0656959065178639 0.06771481443893562 -0.6492921944629308 -0.3275863898759988 -0.2288875707873682 0.2911577049766325 0.055506937269454514 -0.3274208185526702 0.24886612230398023 0.12330129322516485 -0.005688285420281913 -0.25395613471279804 0.15872523099803404 0.18539743743850617
azǎnɖegbè -0.05674417454230226 -0.06746894813126854 0.02722336163829807 -0.5132808803861684 -0.2780328134953723 -0.41269445699045126 0.18271742043226424 0.21604168021015188 -0.2968181028107111 0.21577395651802453 0.32239351062372057 0.19991973826754064 -0.12507093082050905 -0.10979870088207021 -0.3001028577208197
glele 0.14970543368997438 -0.002397977982227164 0.042665043587028266 -0.2991868091221612 -0.007274553975308819 -0.44284228472589865 0.33270086899924745 -0.03545257056193794 -0.5763683891897539 0.09924425674697748 -0.037641874455905604 -0.18766421521110743 -0.22681801608930025 0.2445171589594671 -0.2918170598308706
ahouansou 0.28967872781163784 0.024888340886117903 0.12917050413768702 -0.4838960036898204 -0.05589324627784436 -0.3879994540079358 -0.043498750160798995 -0.12384876009667847 -0.39956426156021363 0.07871083742293447 0.11595340628977945 0.21605275970345886 -0.4643459965126344 0.11428002616257806 -0.18497212648432818
pobè -0.08091546344793298 0.15335974219241297 -0.028294518686373994 0.13578763353951595 0.4178179141053685 -0.19001213126188457 -0.1495165334529474 0.3229502613846203 0.32620493060389244 0.018783331918666 0.1015494584351664 -0.026792698750585993 0.07554143617376077 0.31412065229719605 0.6233310852350927
segbenou -0.15104436559959802 0.17129426631079286 0.22021496737250573 -0.4943921359361383 -0.3481848286034898 -0.2676247837552744 0.3748296761574363 -0.10930762468024793 -0.41414927821465425 -0.21046148048890567 0.18413549427021886 0.16199730996644543 -0.05033458085265854 -0.09948581501072436 0.11960710757254295
gbɛdágbà -0.15388420909515427 -0.41006770192681236 0.0006299875151993444 0.1413314421677342 -0.25385134092911493 0.32298773772777767 -0.17822532492599352 0.2772454747357554 0.46182261611438913 -0.2211114476855447 -0.34010812201489693 0.18297338468941363 0.12089555921948525 -0.27794607678343075 0.06269822238891867
núgbǒ -0.2704358265864222 0.11921484356231322 0.32866310975774726 -0.0054826727843992566 -0.09686315741256418 -0.31779150172199777 0.22885050333628795 -0.012238134954983304 -0.5395933227337993 -0.02083659485005223 0.1186724032361296 -0.12320989215005604 -0.3721070548151441 0.09071113499446752 -0.4125500087388163
jòxódó -0.32361784449085595 -0.3406711737317359 -0.4529141588497305 0.16721865584952011 -0.05579709200684527 0.49046565733832787 -0.21160965469277468 0.03638116845964229 0.2479317206888465 -0.04123075492511784 -0.25250949895923874 0.05806747332853241 0.2566049861881158 -0.07441214986820845 -0.22380780524393676
tɔ́námi -0.33028808058732556 -0.44747924617433377 -0.3418807502767941 0.24873872492244398 -0.3451609168012828 0.26790610660675745 -0.05996814056273911 -0.1865265482281263 0.37693402068795834 -0.0527238195710025 -0.2740879236185911 0.04447349279624411 0.053806153594790504 -0.07036427453818984 0.21482139153121052
kɔ -0.27078996861247345 0.25393588431411945 -0.3690844893632854 -0.2461278363751179 -0.011184270984671405 -0.09695518479658241 -0.16704584805657136 -0.3497111178749125 -0.025245377631253983 -0.05629822418054996 0.03552382639659611 -0.11417898220294839 0.5972188017402277 0.2694373751156393 -0.23723904137756047
ahɔnvi -0.25009151535411805 0.2627623857384821 -0.35708884592196066 -0.23493967531708712 0.0010531130095404032 -0.1039568760892376 -0.18834584319659015 -0.35823756720993116 -0.041309653468862714 -0.06252306671236643 0.017844152665159346 -0.1019573599328072 0.608697624767421 0.26124151509308446 -0.23393664046376134
nɔdomɛ̀ -0.35217462115269677 0.23003473793213142 0.1963160577132737 -0.3188973024004166 -0.15343009706284305 -0.2431966657000539 0.27396402938957454 -0.28742866802405515 -0.3314542465429052 0.15528651194980975 0.1275270488968175 0.299830446868926 -0.4179313660358723 -0.11178094153902882 -0.09986905238800454
taatagbé 0.1195803577888879 -0.16785715953051403 0.5926620534763557 0.24459870014673937 -0.09697094268445051 0.44247826634151166 0.07384006328175764 0.2773439886027281 -0.00469444253935148 -0.04964619042483378 0.1449914495085684 -0.009098509331473843 0.0870811150951772 -0.4730254721283053 -0.0531703806898606
ayìmɛvó -0.09802187676294655 -0.41333949405259685 -0.22519749199951147 0.253145362761411 -0.15672641207214338 0.4307617675608507 -0.005199013725194422 -0.05161387242870627 0.39765866321538124 0.177074922573032 -0.4819856103165999 0.06475971404831152 0.20204334552489822 -0.1437308068523493 -0.003885553848125877
akouwègnon 0.446854817957151 0.06333099775077239 0.229659446135714 0.2277295611095733 0.7260582340319679 0.017179363544835385 -0.023043903778205265 -0.08428653776970041 -0.15324345736252998 -0.1816566736200082 -0.06902520194929147 0.17099952195940382 0.20101260043538893 -0.11940283084114796 -0.09363785227608211
tɔ́nyínájɛ̀ -0.2541580631379351 -0.07739219387569976 -0.28131746154827303 0.28245251748803674 -0.16974520319093922 0.542570218191095 -0.17693702531094704 0.2631932026364447 0.40465966752786553 -0.15808034349612438 -0.2843448220068011 0.09753129511355307 -0.19656053598586268 -0.07703076958050843 0.13122748509865548
akpɔ̀cikɛ̀n -0.09697472664483953 0.17012544915235336 0.19655326167326825 -0.40287795432575707 -0.15967918340010312 -0.2972481329020121 0.569170895076043 0.1388751766045172 -0.24448782758145424 -0.16334551921641735 0.35204808235061436 -0.059100592095409375 -0.24448748009578625 -0.1564877439661987 -0.039398895750628965
sɛ́tɔ̀njí -0.08764278138754614 -0.2952735312418012 -0.4377049562026967 0.5961716074838685 -0.0941057546441223 0.3767246754965201 -0.003046879779843755 -0.06597310351484463 0.3089222763928112 -0.0763587981196775 -0.18142594933734493 -0.08218817977560276 0.2095109283056152 -0.07347826897005622 0.08892202937374992
anɔn -0.24218432185383726 0.2584660179041481 -0.3679709810965024 -0.23419575005034238 0.0071326432921138645 -0.08624095717324387 -0.16768552228586547 -0.3641027192210245 -0.010693203069679316 -0.06871027279319085 0.03558516240467804 -0.11332368755875559 0.591359312690566 0.2955463039263215 -0.238545428571677
sɛ́ɖɔ̀ǎ -0.08365405736160032 -0.43561519129471693 -0.04891420778568708 0.44201510751752443 -0.4546935809808162 0.4511351951620494 -0.2857079951981683 0.0730717509649404 0.20104884326422068 -0.10132794328615685 -0.22195979867197807 0.016274322323979632 0.011361834155781805 0.053954188769636986 0.03592648676693292
agossou -0.3141912898789567 -0.47044936993971 -0.13734106533107954 0.21571267101112498 -0.12175081897663348 0.4617479896732652 0.01431491973918169 0.12931433041937254 0.29435570814904005 0.0741261657595232 -0.13235129267764434 -0.056549167948953774 0.33097730537657166 -0.37059248155472013 0.05991460826767606
aguessi -0.2542709350756174 -0.4509123449823745 -0.1758562768578868 0.26082145685923713 -0.38120122016847613 0.29716376300244496 0.0063257494113337235 0.4196384436206718 0.3828494374057703 0.01719512804479367 -0.21661193825483874 -0.03576920030803809 0.015095637409768325 -0.07033764849195587 0.13908870808664672
gbessi -0.23929550614795264 -0.12524926262927014 0.0372521094711271 0.22878999794866473 -0.4191278824351124 0.265732000869245 -0.3798915852417467 0.014856202822185076 0.4588052652128809 0.1209397854260344 -0.47337347464944896 -0.12659864201540288 -0.0175026531608807 -0.1108741757600509 -0.021137518428812473
ényɔ́númì -0.2996098286891742 -0.334947972997393 -0.1703108864501873 0.3778775692070763 -0.27915103867122276 0.482854770060806 -0.060089819565873 0.29226687609962315 0.30234069731869034 -0.20989746153451308 -0.20341128226244973 0.1033031849709396 0.03364388868776206 -0.18236841810309126 0.0010503165250549213
mawutɔ́njí -0.421429178562094 -0.22504948038571643 -0.20434109488648736 0.05862608396327176 -0.3216088304737111 0.38696585033928516 -0.21230420121693477 0.0429081344440965 0.5678222476436181 0.047094322958020636 -0.16236792971798733 0.132737340431058 0.03205263773954504 -0.19034687175615744 0.12937505687920878
dɛnyísù -0.04201850668131967 -0.01783212443106768 0.13266127664600247 -0.21873065451650697 -0.3461695022807729 -0.36998059806863187 0.2715130766191564 -0.024568627883286242 -0.5885454473050803 0.41276120814691386 0.12796121365643506 0.16731979769154978 -0.11951850168555438 0.02529563483538226 -0.14408590295098142
binanzon -0.18159834478613082 0.03775918591978645 -0.04416763704699237 0.3066207642232398 -0.38421039479425817 0.39853749090817325 -0.18663530023023972 -0.023818030246661327 0.66424381334768 -0.03056251560260412 -0.23369530905527322 -0.09403520675841803 -0.004757472357235661 0.06768602308536699 0.10685262146461287
dònǎ -0.24812079194460784 -0.04041980906122507 0.12313586560414405 -0.4182009464509238 -0.21296908084111157 -0.3966644304836987 0.20226780973917619 -0.08412537712173544 -0.6074549016263476 -0.0533369380589808 0.1874233240156567 -0.22349303367099688 -0.1693635703535236 0.00752828009505091 -0.07876537099048628
fɛnkpɔ́n -0.14362606810810574 -0.36023816115802093 -0.02742571210275752 0.5154944427544539 -0.48637595296134506 0.2376509245343588 -0.07241922588968969 0.21645467416398145 0.3018123815970566 -0.27146170547696535 -0.10901123640853083 -0.023636552999506562 0.12934565738786688 0.19313804784783822 -0.04535573194951372
tanyɔ́ 0.09239215416411546 -0.000910316585880609 -0.0016213294656385257 -0.5802922042656207 -0.22525534783274323 -0.11109658637052276 0.48689112198938667 0.1342018698308161 -0.3544379151797472 0.18664460050324408 0.21420782686499265 0.05887596250911315 -0.15698104375424826 0.2830490859388202 0.13164299454794495
mawuena -0.22743352881251136 -0.08111941323823559 -0.05280533527385771 0.17105824500455008 -0.2978929542722886 0.14226201730386406 -0.06655173670050801 0.29384255829688033 0.6507198372724465 -0.1375112226375128 -0.42581373558904334 -0.2136145011100544 0.15391131696131896 0.039628930021253624 0.08099590969001307
olouwafèmi 0.41244611921923385 0.08766843849908769 0.24748860134172534 0.18150810537324732 0.707894728235615 -0.048877397797916736 -0.029496443853798095 -0.05750592665603769 -0.23963050815636544 -0.2053810979382611 0.0032898330627727703 0.2326756216535115 0.1663236998674272 -0.15332212562635533 -0.11345024710887527
sɛ́wɛɖɔ̀ -0.36207012643533043 -0.406226177906084 -0.057179969921750964 0.3920557070188753 -0.0463714214992254 0.4377909445309795 -0.013088724538676929 0.07474242255202136 0.30453787570696933 0.0626738209324439 -0.4515381975906116 0.18833310440113382 0.051136810859870846 -0.03413064769957216 0.03556456004681274
jǒbinúgbɛ̀ -0.1611288065106323 -0.08603491329429255 0.06776827641421683 0.2002525346168312 -0.47313496433684393 0.46069941690722427 -0.250722704787083 -0.0870043954684506 0.426111704546642 0.11918870942506854 -0.21996235901401398 0.06832121211844763 -0.05651069065221871 -0.35130065839497865 0.18206203426007422
jezunyɔ́ 0.00658739473700081 0.09172715750902126 -0.10027022420265147 -0.7330985559299097 0.03169546562938967 -0.17104271857337486 0.11689821674407082 -0.1018508998374963 -0.20394673161246948 0.20405063297448517 0.22812682687965405 -0.0355304011761613 -0.4216771317964541 0.019946593463336246 -0.2623450132960291
aděhlenyà 0.16519070902384897 0.07387228833404963 0.13479209332587852 -0.403557470720752 -0.22741104139737248 -0.13707288885754415 0.44104712617402153 0.054566486753099705 -0.3510666400903932 0.10517957321556437 0.5537710142898237 0.0800445495301393 -0.11543798964706196 0.21415125297354135 0.08523080451142262
fifamin -0.15500273633629427 -0.4115091177420583 -0.38445236787171844 0.13579706522001958 -0.18712558175281166 0.2874386373008839 -0.041868685087275356 0.10267844355145832 0.4057269132634585 0.03822099475567548 -0.48453001968015386 -0.15066232653013156 -0.09366700695874283 -0.21272594360058322 -0.16907471974068045
dɛ̀domɛ̀ -0.1243236165005096 -0.3046074931265722 -0.2355664069109737 0.16407629032599574 -0.20333022361814923 0.5626564076212345 -0.13884761569402002 0.3420918207874395 0.45940136084108657 0.0798612733518803 -0.11284630821866748 0.06140707429221228 0.20679721650108845 -0.17236081473338638 0.06738188264915689
gbɛkpò -0.05637857099124861 -0.1477317219569543 -0.16607068384319354 0.32439192048540366 -0.36130476312966864 0.26122473867365453 -0.17746868752809308 0.12910579273632553 0.3275923874966826 0.08256331500401586 -0.5061967469680492 0.024985510318638254 0.22661919743867906 -0.24703955330261268 0.3286831599836081
mawujlǒ -0.00831680570957323 0.2781103312091352 0.02716694742883638 -0.41935178451799093 -0.17027141232026738 -0.3841414925070369 0.07008986159667555 -0.07346537114291272 -0.3398533162933298 0.15897508614875017 0.25776355601102763 0.14949064605795265 -0.40919678210952193 -0.3437971249217889 -0.19808782107264708
sonangon 0.4406932557289705 0.04071046656093604 0.2404808710564655 0.17937186055118665 0.7259255160515596 -0.03135930687311933 -0.041605372344073764 -0.05333384285168695 -0.16810827495323388 -0.16681528627442013 -0.007229260795279514 0.2077271621718653 0.17044575190352404 -0.2151802459201603 -0.0673377079396224
houenoun 0.17729433901600547 0.05284615560730267 -0.053547838309634326 -0.3883092714726025 -0.30338421890317846 -0.023754766806581246 0.09520131768861538 -0.04272459894793515 -0.23709532061629351 0.019632421223957683 0.37853773211508934 -0.018050479440669887 -0.6968793111218716 0.12101218697242863 -0.05293016157619257
houetchegon 0.49567272225962644 0.048527288441095884 0.20662989805351048 0.11704316771734732 0.7211088650044734 -0.10607218158360927 -0.05289640751661265 0.04078187768235436 -0.1791489634504584 -0.12160594395125604 0.041031392345745855 0.15456174334265918 0.19475421650638713 -0.18192129727989612 -0.11760156535705359
ahounanse -0.09064458410389355 -0.31561519414602107 0.03440220143691947 0.2526994386418197 -0.20724659337292034 0.36765541767157545 -0.3071680435387687 -0.10376083209871279 0.490238275977315 0.3237301124355757 -0.36136590579541833 0.11382112686741071 0.03020533747435705 -0.19882215240207374 0.10078627980414803
lusɛ́n -0.007303096297340809 -0.05194965841595142 0.1300260820610737 -0.28047835647374464 0.020728414958995252 -0.3757324010501652 0.3362761030617086 -0.19271115968635094 -0.7048787222860636 -0.07256368153525873 0.11518758615487647 0.04763811785888688 -0.29601519781059854 0.020249226272125657 -0.016905236218753922
sɛ́máyí 0.14538866228953076 0.1581596529322058 -0.06433961105998544 -0.16894720743734123 -0.23906960320026788 -0.07380406806355921 0.2804251186377168 -0.03630915000695846 -0.6039640854513573 0.27925248399194336 0.06359623936941924 -0.13582580833169008 -0.48633557657643506 0.2656420478753467 -0.036523941177654035
ayíjɛ́nlǒɖó -0.21861218252480358 -0.026591254499981884 0.14475747690712612 -0.5276323776878293 -0.018943956271552067 -0.44721533330114577 0.33701883172148267 0.09209948441658813 -0.4025273179694635 0.0801380022980908 -0.0859348764257271 0.1984135528790769 -0.26718194589157224 0.17062110118853385 -0.09718075648022678
mededode 0.46240022161154865 -0.013279511450174634 0.22617260746175571 0.23004691955873802 0.7315507218911967 -0.02411365946174598 -0.03875606200720458 0.016083991956906567 -0.13829699250285185 -0.16507181612591643 0.00974669405748822 0.12602836564919367 0.19932542023600633 -0.17738583328849652 -0.09161521235629946
dɛnyɔ́ -0.3029731335921147 -0.06174122281120927 -0.24880314837678083 0.45344982522578203 -0.076498663561066 0.39776220173961613 -0.10118437788045219 0.014124028251988758 0.40111783373687177 -0.2522980260615638 -0.37059246313819844 -0.028662639109160157 0.10010762545147575 -0.19602626272952164 0.21451542684794192
olamidé 0.4517347477875115 0.06807103391425762 0.23255210718112304 0.21667730844927655 0.7338456191612932 -0.010104555670941992 -0.039648557954556546 -0.0541998559302337 -0.13966072111385366 -0.16003599680075534 -0.04427908157662366 0.1652370452551687 0.20211120204738928 -0.13949561961407056 -0.10192106635560044
kandé -0.21530269850762448 -0.45890217636045055 -0.08899869153692644 0.414230395612719 -0.14652764007070992 0.41059962790195864 -0.05071427326755462 -0.15831175996331281 0.4701609602757485 -0.14387171989722922 -0.20694476454235372 -0.17605395789689038 0.09138420478166058 0.07137256266082145 0.11029068459967073
hêvié -0.10703108705018118 0.1467899248010589 -0.044840988356922996 0.12748726082109757 0.38772983931535093 -0.19701830503072223 -0.12672403848964148 0.3405330893402781 0.3422201458878703 0.013769369706069087 0.11497168954152773 -0.028923483393911986 0.06775614395382391 0.31499147428303503 0.6254778965347231
azovè -0.06517354162227246 0.146734656773371 -0.03831272820397094 0.1362422337259191 0.37455802809781275 -0.21198521854321398 -0.1449247810722545 0.3513040013184745 0.3419197607881931 0.015583193949394003 0.12421654665747793 -0.03176341078969862 0.06527820436068203 0.3263786208053645 0.6148361689942305
jóyěɖó -0.11149602598929342 -0.46896325758528656 -0.099628823031195 0.11116339694892353 -0.28350575699053215 0.33145203836466763 -0.04541881238745497 0.10211618511710173 0.42064459768299317 0.1942886897607943 -0.4556424606979256 -0.001481714297102323 -0.046889492161948716 -0.26889908530488044 -0.204818261067623
vignon 0.44347621603142917 0.05681150398670154 0.26573054189225714 0.23725856698155764 0.7155174153452966 -0.04644860365055356 -0.07287289128294318 -0.013121002472758233 -0.11778364440681761 -0.1564346347855887 0.011092748275865595 0.17066254571439243 0.20858662768733913 -0.16511097583171183 -0.11408291672779387
djidja -0.14076734727838186 0.16290497420511643 -0.05692764843986384 0.11749692511520467 0.3935534293350925 -0.16480106488210364 -0.10754720643561498 0.325651814043291 0.32352559925972124 0.00014756465354480864 0.10363485111550509 -0.023517254514090126 0.10201477199427424 0.30495472651559924 0.64329370526684
coovi 0.2627744713190739 -0.03477935586169672 0.13947284109852934 -0.4145934092462284 -0.38508869486660874 -0.2472548756143763 -0.07103230023230003 -0.22069359005552427 -0.34340821667752763 -0.07235424421905133 0.46175144328995765 -0.020510201173702843 -0.2962186341844853 -0.21212237397088327 -0.01977545390505882
fossou -0.04534624120321967 0.2424203228464427 0.21949730568648843 -0.13792316161706822 -0.2275009319461392 -0.29820569784860995 0.3748249113084152 0.12782971688441833 -0.49189079758145915 -0.039796291419847245 0.14144087257617488 -0.229134876730361 -0.4473831883369028 0.23018223817812986 0.013241767732111621
jezuví -0.08790955793663452 -0.2558574950335121 0.027913207584092246 0.332697284643633 -0.26802852691424384 0.3050001675675114 -0.11059692926972985 0.21488871245193136 0.3581662153003747 0.185009195542194 -0.49895337914896937 -0.19351889724968926 0.36258368777320427 -0.072708020641119 0.036045707087821205
gléxwé -0.13732565523668402 0.13218568315120038 -0.02707472397508637 0.10149244893723935 0.41608725440094757 -0.20108005836564075 -0.11992366971132942 0.3155237557803966 0.3102115314733231 0.024562766371746706 0.10922348800308676 -0.02003908183447296 0.06782432534743874 0.30544705048713694 0.6442700154608287
n'venonfon -0.0006472671149668467 -0.005969627082634101 0.0847168211829059 -0.232488067003239 -0.08616555710756145 -0.24643626386233677 0.3289887356192203 0.09829155841153463 -0.5063322477359592 -0.0034753314506202667 0.07909760310409418 0.0981017140466795 -0.6444280466742142 0.027399782039351644 0.24199150810014555
sèmèvoh 0.033773697267606186 -0.19800484610184627 -0.3302045087175405 0.3030009551664227 -0.20310102711207517 0.357736812015862 -0.12760955156764006 0.0974262387732139 0.5703806813257842 -0.029448665840949052 -0.4149145589076266 -0.06540963443390972 0.013083724621886103 -0.22456833365786358 0.08095533343928073
gbevi 0.44740273286345195 0.08692929960370514 0.2565941321866515 0.19633652227942616 0.6965439969605716 0.020756711874365542 -0.04668839629532663 -0.10036617778458697 -0.2037112222231343 -0.13292778688893822 -0.03862258464894747 0.2165174293373962 0.19107006922455483 -0.17742218441616658 -0.11028668659068254
háɖémɛ̀ 0.1442417481485252 0.1911591004132368 -0.021315618434611612 -0.12582376815142207 -0.1537984143750847 -0.3770714727690078 0.2434432821593169 -0.40114640018431147 -0.24859705978684296 0.0618097103237332 0.5193990877928136 0.06647030172979876 -0.31966193269117976 -0.1921344550928323 -0.24029169129680053
donan 0.4308796995374412 0.1102432685418498 0.2239263000431549 0.28048810122006523 0.7202339398529881 -0.03289473287972071 -0.0426938268116633 0.02224688013854762 -0.18394643802903332 -0.10095014942585705 -0.0573967198544835 0.17099952999638632 0.18920738807506374 -0.15367064201457203 -0.10858900415946365
dansi -0.18364614335231821 -0.21183824370078738 -0.13292806375818855 0.34302147960247853 -0.5404666252525036 0.28427194709395004 -0.4374805383077588 -0.019973468047234443 0.29454626798830263 0.1595712918764047 -0.06601824065288744 0.18913985467205077 0.16031538010649218 -0.1559163849656204 0.10458344477027627
ahossou 0.4371744362309572 -0.0059331184440109645 -0.09575832075672898 -0.29032646152949376 -0.25493405961494014 -0.3021443465615182 0.5764393809886283 0.11645784056324332 -0.24608837571609107 0.10667335852856559 0.30900421817555124 0.012679169929321318 -0.16943717588673413 0.09661001131857777 0.03458484542515585
asɑ -0.25028101194354335 0.2561761750474668 -0.3713401001785122 -0.23601285058186772 -0.02600261198015726 -0.10617469662291451 -0.16209485629619336 -0.35469349801533623 -0.029144859178481457 -0.07621590082292154 0.01252785736714327 -0.09885464528209023 0.5939840662628331 0.27736412568407065 -0.2557019639894109
sɛ́dónǔ -0.2739348712933344 -0.39150498143810636 -0.26725594899936184 0.08367614890643046 -0.11087011783663572 0.3759303206252346 -0.05934529054727974 0.11149551782332198 0.5637513864427836 0.00419876091046657 -0.255540916157045 -0.28648976060543135 0.20787776238134634 -0.060459317833136586 0.09315588972132828
houéfa -0.09347023105957497 -0.2743981929099347 -0.11555981993774533 0.10214790847679917 -0.4109180243346793 0.25001218935196173 0.05863836565781682 0.08494072887456312 0.48854682184717396 0.06745373705300649 -0.6000455204479822 -0.14691334913500798 0.052586844423992876 -0.03818546819590845 0.12034725403901501
agla -0.1487565431359901 0.13980724796191155 -0.07194947392923429 0.12724169675835273 0.3806778939286051 -0.18005786685327543 -0.06942569460697633 0.36007435212268557 0.38370942138650266 0.0059824283503647135 0.12147878167616545 -0.03212109743105336 0.05121034935678454 0.3034338581839565 0.6033960929680209
vísè 0.17292596379692998 0.41606583813557163 0.1867761769581594 -0.12563793562181472 -0.15289302452201292 -0.14287664917358503 0.36162846604068855 -0.26513324739332833 -0.2600540051387764 0.13077321600838315 0.48941934951026655 0.03897321204097024 -0.21578680838952835 -0.28144023059662193 -0.2132883385308941
dossounon 0.4754423631282586 0.038411240425373715 0.24320418961980392 0.14766550465298683 0.7324458770152561 -0.07078079033798537 -0.05364170697041684 -0.005387796418977347 -0.13393303056288428 -0.19333420976064208 0.017710261569498457 0.14210934109324108 0.21456417092512312 -0.12945415445988537 -0.07782656726202802
cocotomè -0.10356669521273554 0.14444515655702697 -0.050495180981202634 0.1305427317366793 0.38250462767509924 -0.18850906651085503 -0.10769546259113237 0.3546732847550891 0.3556094813717241 0.005362998055704081 0.1256942924037748 -0.027085362526087058 0.056798698869860234 0.31030358695620397 0.6214426554084856
wiceji 0.017615390839265246 0.04704018960970208 0.061941754680263514 -0.4199049492839889 -0.14929861420444102 -0.1968709930380888 0.46282768397347834 0.047260897506427674 -0.35377331339506013 -0.025380145091630772 0.019776377575114263 -0.09751201853712227 -0.33269380544900695 0.5369130066728042 -0.020883077725918804
sɛ́kpɔ́n -0.1291820110938057 -0.0473453963302023 -0.35575127710852555 0.495512576018451 -0.25025789205408644 0.3750662408131958 -0.21787111620093821 0.1599612182296486 0.3342960554121615 0.04692134021486001 -0.11496796536672324 -0.21434685490107913 0.15591073722245274 -0.2977322140645437 0.2069718962853459
gbèyětɔn -0.223215641797549 -0.3649909075788879 0.08627126990696035 0.27995608662361643 -0.22413177584054386 0.22181639866351727 -0.46849270508972674 0.15652483457073463 0.34008467102063167 -0.0942254322768164 -0.4440255529150334 -0.1737554319447484 0.06319702776364677 -0.15155547025121127 0.06360964293602546
ayaba -0.38115976734913515 -0.2614000224902898 -0.12497384521504384 0.17909522481879692 -0.28023931983971134 0.26135804525798423 -0.036929944991772816 0.34058297091862716 0.3941945368967705 -0.1132719475121923 -0.1725554732734349 -0.10413516811525358 -0.005988488467028412 -0.41676272123803043 0.2953229877322214
sɛ́ylɔ́mì 0.24051904973701196 0.033667016806377424 0.2665912657936893 -0.2529955367119911 -0.2862845651215645 -0.4211027933979091 0.22604569450931625 -0.17140612035140548 -0.366476451192951 0.061721106217330214 0.34730275585644377 -0.1297646830490165 -0.13924777999057694 0.40571816129759025 0.0169078967955052
ahinon -0.24735121453778053 -0.44431974460481555 -0.022605727239856398 0.5850273848065582 -0.3070423759682923 0.193945341375642 -0.27219823967330475 -0.13171040780019644 0.23440607847744838 -0.07359807635641875 -0.17211262993124407 0.08905763463687347 0.26475826893666443 -0.007599348462355303 -0.02940724055798266
doupko 0.43083816572941513 0.09764279558994943 0.26088182919480546 0.21212460935410896 0.7204485158196726 -0.052557705716612 -0.08662249648383219 -0.036330153498176206 -0.1693870520209711 -0.1897876371702361 -0.023743827574220305 0.19804844754320294 0.14762645709034344 -0.1504097480319229 -0.09962462336153793
zâ-kpota -0.11393304645007173 0.138212997785018 -0.05237857613624133 0.12528750465791974 0.39231366581354943 -0.20498534502157928 -0.1113135511321044 0.3474065186629722 0.3549949876360865 0.016798861505445205 0.11554741731828991 -0.025657437227144354 0.056978991257977625 0.3151877160834245 0.6137852779306415
setchégbé 0.4403148936782826 0.009977216970399109 0.2261998895510903 0.1722386514834082 0.7312494510074675 -0.007557496125607675 -0.04736661554759113 -0.025109221208434163 -0.14427870684497393 -0.15876777803362105 0.037783007498732604 0.13009374504940632 0.20644416035372554 -0.2504162507598172 -0.12325215562140661
ayéfèmi 0.4786110522741419 0.10200862488347955 0.26248142942543456 0.1734688933212771 0.7036725727265392 -0.04504283456502845 -0.07194784536762054 -0.08262615529262979 -0.12026962897893655 -0.17476528319134282 -0.009087353067147851 0.21102484479964626 0.18422305071916403 -0.09378004369567768 -0.13096666379103583
mahougbé 0.4750663935929801 0.0205601952997314 0.24602572747783877 0.15169610973652994 0.7183763833479779 -0.020847024316577395 -0.04678027190323498 -0.09279536939464426 -0.16714730274852693 -0.11434247144778671 0.003140128619034699 0.2357891475886204 0.15937529797594063 -0.17549530389024143 -0.08197167135823337
ayífá 0.097905791011218 0.18863002629910952 -0.09352938782577526 -0.33544507532129675 -0.3344879835984162 -0.25400228528596236 0.2803740044061644 0.22029764790339407 -0.5295871602290715 0.36352342830830203 0.21050978870425344 0.1895142702248504 -0.14303334711833365 0.09713343443068365 0.03580258768367516
kúncemɛ̀ -0.34088766949550103 -0.2966739908428016 -0.09149794963618446 0.4678936133796168 -0.5049724492161214 0.1106106898619061 -0.07413828243284415 0.0893601760993706 0.26808215243585837 9.721187646175708e-05 -0.3534683847289875 -0.21499582972144657 -0.011150153025329814 -0.012025497370822326 0.19819752007818126
videhouenoun 0.07218614383185053 0.2890174023549709 0.3137555869657668 -0.42910387519846976 -0.3114236655440052 -0.15074645779773949 0.35916288629910037 -0.11596400557549592 -0.3667929794324122 0.22351397523718278 0.05985279516274621 0.2339148516697819 -0.2912243260828533 -0.15677570513970104 -0.10091518430276955
nǔnyɔ́ 0.014927959642325314 0.19347960749354073 0.22166409666961892 -0.10092249146029063 -0.1606035806881504 -0.2975758040943895 0.2955576117099955 0.24730596714585115 -0.38635567686660555 -0.05073404793815704 0.1830120099591231 0.40668775351549613 -0.453924108059954 -0.08029757390620665 -0.2700493501391662
dɛ̀húbǒ -0.3416366786513149 -0.3562155395477427 -0.18876277657293294 0.22791088583917635 -0.2725510059883056 0.6024338251723212 0.048020028064964596 -0.045735884506559264 0.3171267360763729 0.018870151679638937 -0.3095941584147862 0.01876150655741902 0.01343983030831243 0.12304890768576392 0.10634772706061149
kɔnyasun 0.3014060819050233 0.33754920647759057 0.2661168062682584 -0.068314464718227 0.10701885307738711 0.336594849408672 -0.2260638002757497 0.044603631840223236 0.49516077629918664 0.08615732421865577 -0.06702733068593432 -0.20413621648548666 0.38926637300128225 -0.2658608031912858 0.14157143097216263
tó -0.24649828323997955 0.25999806999222747 -0.35721793478409936 -0.24266812811688382 -0.008159565188925038 -0.10399269859208804 -0.1688254025040382 -0.35794521070243274 -0.04318049563303925 -0.06783222454242206 0.01984411831497633 -0.11175954980737218 0.5973177350895824 0.2804145512395317 -0.2483291848202348
cenjɛnnáhú -0.12645414172660993 -0.6329183180289409 -0.1960186390223803 0.32279903936140986 -0.28938019202339005 0.22603498013810983 -0.20227572146644035 0.006697081027331549 0.37003198583466257 -0.1424209426966026 -0.2401499690129381 0.09906599327953143 0.016940200482633373 0.06443818685203741 -0.1790180613816335
akɔ̀nyínú 0.24816187153588876 0.17215551124800135 0.1767585779101052 -0.3767713871273551 -0.1657889569735611 -0.13104446928565155 0.5273203094521396 -0.2572352987225893 -0.2640269310193781 0.1554036312693322 0.1277601655587252 -0.25457063617839404 -0.39542789740129214 -0.013988409282631892 0.09925417068724322
ablefonlin 0.430700614399325 0.07563424004174037 0.2504725719220669 0.21513455455006503 0.7342625898822243 -0.05342325803950751 -0.0799421017891817 0.01870347497093626 -0.11590280570857008 -0.1637977540626833 0.011833947900379177 0.1710313370839993 0.24673693631233062 -0.09602808906540351 -0.08783291063055261
mɩsímawú 0.1758762646784917 -0.11483557627561057 0.12014150339138517 -0.4318787876104395 -0.21736007207963678 -0.5778632858063297 -0.0065843489379659595 0.2574955988850229 -0.3264156538674699 -0.02577843338389327 0.3395074897963106 0.0490498841638143 -0.17823998134148158 -0.12221840843344135 -0.1733405611292543
sɛ́ɖùǎ -0.21788083491090532 0.05419612635651706 0.18775215491210723 -0.22139818666441877 -0.0008758821395699575 -0.024671096822884868 0.5004346786444474 -0.15159990060089343 -0.6273027409905493 0.15790399678062914 0.061696293721203006 -0.08634922340320393 -0.1763014681004946 0.33266352685631134 0.12357684247338313
codjo 0.1538878564811556 -0.02716145749649996 -0.07979934638656976 -0.5272411691397441 -0.07164771675442047 -0.29042785258685366 0.4456793444183112 -0.3612876902714389 -0.16528129955233153 -0.04533900789188247 0.2778334473812892 0.16297866710348272 -0.3498240031194998 0.05911731144134406 -0.08791717005206409
dotou -0.0895005213536837 0.06608059328962626 0.35789965823343084 -0.43087867909757904 -0.030736871315363765 -0.2440775278704115 0.08747829315611816 0.0014824495990752719 -0.22880669525470007 -0.0962662979278634 0.5416425414140117 0.20501867472551125 -0.29925861956815375 0.045838916667347344 -0.33415814140223865
aditi -0.1415056825070862 -0.22638464839415653 0.10600495470879959 0.45567716330985425 -0.1789883991365525 0.31506132596603803 -0.27777509902161773 -0.02068164124204607 0.3526126393731755 0.02615832747113046 -0.3616119712077053 -0.06604269702457136 0.4023284937399573 -0.2555192187680894 0.08974525509413969
gbegan -0.3702005521170202 0.19481218245919962 -0.05677180928218078 -0.25580261018120126 -0.1237043685000444 -0.2175854833312228 0.1897010576236509 -0.07922736613369266 -0.5487217375572896 -0.050483897850870055 0.301772180972057 -0.2639101617838831 -0.3929524138992474 -0.12331541387364912 -0.11288695023108584
ahouefa -0.3234175831466635 -0.45931131451948215 -0.027224462642610074 0.19059163146296487 -0.30293171132618796 0.35117840277318446 -0.060358814359638725 0.20168770759850999 0.20687306798631883 0.05218509707655923 -0.49217560870196125 0.12912298916571682 0.015851645226868515 -0.28204950017493763 0.00480748594348066
coffi -0.1062110114025467 0.12292379454107805 -0.05796810258609656 -0.269430255111059 -0.07999215510690229 -0.213927908135341 0.4218599670680938 -0.4408344730583033 -0.23005514131855567 -0.09029074620675841 0.26981070752752934 -0.19376596211630678 -0.4622886404987699 0.09287919669887644 -0.2721605073172105
dossavi 0.0031298768988238944 0.06101983466269823 -0.07682802572369928 -0.19708091367083347 -0.2716125596288006 -0.34039970061577435 0.14277517595564973 0.06590429226204465 -0.17921220711416214 0.09137307364748802 0.48356683483048835 0.16611256508703715 -0.5994917488359184 0.21444168072065456 -0.15917426332865026
wosun 0.3008327376848819 0.3373059886215898 0.26503670353564285 -0.07063547192593307 0.1086685811820372 0.33621583250479414 -0.2269396519924597 0.04672886795805906 0.49646908456473593 0.08183722186989974 -0.06809648803851984 -0.20385339384657986 0.389806320223997 -0.26370984826909355 0.13988340999389537
dosse 0.17551576751898545 0.39619363063591284 0.08957191141969739 -0.12989912939981157 -0.005344265670625042 -0.3958884585170871 0.41966702564307035 0.10016245347197705 -0.33996382836296923 0.05777477594902781 0.09805714460822854 0.19718437834698688 -0.2751565494647016 -0.10136689479263924 -0.4296370313401571
hinnougnon 0.4428669488036961 0.0813717294753859 0.23016032824235164 0.1855989546481885 0.737472410887353 0.004793847897886207 -0.058090660937583534 -0.04807953222516612 -0.1588636556985501 -0.1968974796883771 -0.009600243639820576 0.08933495271134492 0.1387923802155472 -0.2120684447993718 -0.14376174306017192
akɔ̀nyɔ́ -0.02545662800770728 0.2726033037634173 0.020014984482307 -0.12411268378653975 -0.25260669524390583 -0.1164733904414704 0.27968885936285304 -0.41038086835551624 -0.29954028192305104 -0.15020909894781564 0.08809342807159362 0.06549564050981346 -0.5336539170619159 0.23857511052965205 -0.3364443160909835
aviɖěmɛǎ -0.16197446515463876 -0.09995431658218185 -0.212718688196817 0.4282482093654845 -0.2824146570830566 0.5928443524203884 -0.39432531787236674 0.00018897535561946636 0.26169201528732916 0.02042451692033305 -0.23045489693725205 0.11706530707939702 0.015858557762058845 -0.08903779765363487 0.032504713038891145
mawusí 0.06371122229167256 0.09366005426065405 0.2392323049512338 -0.18341296567386842 -0.043071614533100995 -0.371298313268672 0.39192635653301366 -0.2556892577228456 -0.30636699651242427 -0.4136100867253136 0.22905685344449148 0.0993504717800696 -0.17030645551925072 0.41442565878953697 -0.07671893965401216
tinbókpɔ́n -0.01886681823335245 0.38737741012920146 0.08518518212883794 -0.303502384636049 0.058930363818174535 -0.09244210198918254 0.49774749672296575 -0.12603460290707302 -0.5391894866015486 0.22506935845270407 -0.00751000676671241 0.0559259289643928 -0.25241410150113114 0.16558321044778024 -0.18835374123099552
koulodji 0.03100240219546495 0.10100281607845811 -0.2048152445574193 -0.41982264389542395 0.00568054015964638 -0.30969553566617525 0.4827606675349352 -0.10302698839129992 -0.43263259985634317 0.12382205228441273 0.1265734265431904 -0.3696485828459736 -0.24143466619622977 0.09489323325955681 0.05203390830923294
alihonou -0.02468445390321886 0.004083477297381452 0.18474644344203026 -0.35139685687948374 -0.1364564473528412 -0.17957666230625952 0.14468062148087849 -0.12281875246236901 -0.270204919513058 0.16702964683247595 0.21442207932921353 -0.2601931535905823 -0.4499344604937913 0.389314830936065 -0.42649980542162
minámɔǎ -0.15283949023701904 0.016913000203696085 -0.41149185564871393 0.21749516559262583 -0.2558339816962697 0.4696250458924512 -0.10523398798167682 0.19308204085341188 0.6092423618833429 -0.022855463733067884 -0.003004865293318811 -0.03594029474878439 -0.06853648207401972 -0.153443664977745 0.11748134504229878
kpɔgbè -0.24865786614936392 -0.10273738151822191 -0.048002934935251575 -0.45711331121032234 -0.21705969284176022 -0.3964551365607659 -0.11355652907288989 0.11543910365346595 -0.21525595741073983 0.21524424511255738 0.3706134252112893 -0.03111579411171469 -0.46136071917541466 0.008820784790250294 -0.19025316579200494
fifawa -0.19610919693102016 -0.4203185468140236 -0.03854134701868393 0.08350367923695143 -0.1363064437145015 0.0677477347540502 -0.4483917062782049 0.05011990328914267 0.41899387779176295 -0.10234464408076767 -0.5397647570299374 0.029151004552246007 0.1937313945080927 -0.1322454035485777 -0.08866223225425103
ayíjɛ́nlǒhɛ̀n -0.25253070576749204 0.16730756559608828 0.21530658134307068 -0.3819495117071992 -0.2694034680184284 -0.1427729214259351 0.24624404857330984 0.01545981217394332 -0.5297931224009561 0.05124840664658919 0.1596245760664692 -0.4322627783063474 -0.2369028240842682 0.05110598834403898 0.003374540947645003
gbɛtɔ́jɛ́nnɔmɔ̀ -0.09774584513372729 0.03373587352201212 0.10130210788432041 -0.43760028399345946 -0.14003269134339508 -0.5730588951398495 0.06136585492990708 0.2795842018983004 -0.07951494906826446 0.24349478221436285 0.1129503649027821 0.0579115075194672 -0.44355512734144403 -0.14085680902213643 -0.2319447309484257
bignon 0.4915620420095901 0.11571582075173772 0.2552964219588399 0.16723918146512842 0.7117956799058016 -0.005824595037826599 -0.03898521845085166 -0.10039609761820341 -0.12605144776186059 -0.1960588638629622 -0.03827539622742104 0.15904614288792113 0.16444735016370007 -0.08217851712199355 -0.11853594618033275
dassa -0.12297880956397184 0.16195215197064547 -0.06690288203728413 0.1231490904221226 0.3747057904696673 -0.18941018691484104 -0.1328297192005837 0.353894354161963 0.34866350115846595 0.026067197090217636 0.10574978558786323 -0.028028819080167966 0.06037879965262324 0.3189492187153383 0.6155825891593872
gbɛndún -0.22818917931834917 -0.25350482769001575 -0.352434757885959 0.3158397042516764 1.940900392526616e-05 0.26907901114187116 -0.20585069949748694 -0.07763473681537116 0.3941621788011127 -0.07384627501932212 -0.35377427635461034 -0.16554869862349372 -0.12622577669017315 -0.3137101017682537 -0.3240999930083386
djimon -0.07889983263890367 0.07188850390731995 0.080792119409852 -0.13108245347776276 -0.01168643814908531 -0.2862351562500229 0.260480218511577 -0.10740232208212563 -0.3471368443911929 0.1270782868846828 0.49748050831248186 -0.3036795112276958 -0.5146154475836573 0.03090796320994847 -0.24214434222947126
zosun 0.30048231007625964 0.33144722095935236 0.25954251540553885 -0.06770440606038906 0.10810053210113649 0.33965899787903997 -0.22687684614796574 0.05136521146312111 0.5020912278175697 0.07353142686958127 -0.07420178450287881 -0.2052708555917821 0.3899616450479868 -0.26334749303814514 0.1349491244608573
tɔ́nyɔ́ -0.2871524314634841 -0.45569750853906 -0.1470618824599753 0.24949224196708 -0.25340347497311616 0.22673650576994678 -0.06973880988998227 0.21778585613999688 0.30505015132986996 -0.059947332503053584 -0.4932657284582746 0.26410456536628923 0.1065927942610628 -0.04209052865897072 -0.1762615497069963
xwéfá -0.0794579252124629 0.1881565591004199 -0.07581503481183241 -0.536506655350552 -0.048593302231990515 -0.033683056010269614 0.1412150275432968 -0.04943526824580438 -0.5224696215222142 0.2517720180032144 0.28086553855450075 0.3075105820622305 -0.30466601950768846 0.007515986565966499 0.17483258155248688
cossi 0.10551427129073591 0.15024752656119847 0.16480285116817797 -0.3839049084103414 -0.0017113134411666747 -0.06780311108266833 0.5649589975384783 -0.027678905968195843 -0.5905338028814539 0.15786005107195214 0.015031268038300528 -0.17687513210407818 -0.2341673756457137 0.03347010194590164 0.0415290716103456
dagbede 0.1855589333147869 0.13264873079260744 -0.04613197974462551 -0.34338825566687087 -0.1051557715446647 -0.2902455186566634 0.14056676156333886 -0.5240859506818546 -0.24695812593220132 -0.014689051152468989 0.39856517675737685 0.05767225075424217 -0.4426040263587287 0.09500661150384052 -0.08058865656349871
mɛdétɔ̀nhǎn -0.21729438205513457 -0.28412648050852296 -0.41509706957520415 0.5510142393548491 -0.2399914207269771 0.12699036821191176 0.017025690963053976 -0.06410976557369744 0.2298543125109455 -0.025819210839218027 -0.3305680290640643 -0.35354358989306944 0.10997514206564911 -0.10201605763477486 0.048912881506312865
bǐjɛ́nnányɔ́ 0.2633085300920752 -0.03310410705967292 0.008922560932034536 -0.584251695140311 -0.08960528597318375 -0.4833908139159086 0.09963476355669 0.08055534761939448 -0.25105185823751885 0.16141607153401696 0.3549115654812274 0.17375932600264346 -0.2724445909157873 -0.07418002639358384 -0.001482920339612035
fadonougbo 0.050959480474111744 0.18918049848175364 0.08153074123054893 -0.481431512487988 -0.2555041041434074 -0.27440601298722483 0.12051225792674795 -0.27723140558800113 -0.540577067126951 -0.05953842151155005 0.2187101924825924 -0.17931787575577057 -0.23964304685223184 -0.10295965295314617 0.20448507210432704
jawou 0.19887126829068574 0.22947753356903886 -0.2754297351340734 -0.3443228905224343 -0.09736800310370862 0.03546431440168054 0.5009093919883035 0.00913574227217789 -0.2865420140252529 -0.06734795074122862 0.18570023158091106 0.09714889466782523 -0.5496934543000177 0.06261037216615768 -0.1017090512887268
kúnyíceà -0.3533065135121365 -0.36983352352765786 0.13162562821730237 0.2616430946748783 -0.2526027427749284 0.42039652324140847 -0.39005488574802605 -0.10567086905707355 0.36830452346766646 0.06537123891210245 -0.23003491031384016 -0.21429419912896847 0.026163780833847 -0.03551225967609546 -0.0626998145675512
kɛnnámɔ̀ǎ -0.3007379688703128 -0.14167360516078922 0.031821931565469704 0.2633894130725478 -0.3750023833797962 0.45388941264765137 -0.43328307175325503 0.19302937678120005 0.3756557690098587 -0.03619299964683785 -0.2244274782006245 0.0811233575677627 -0.164045843640541 -0.1268054355377799 0.023123226509500428
gbɛnáyíǎ -0.17627528933632308 -0.4428962533843309 -0.09343247894496066 0.4144942107538947 -0.35165821374036493 0.3357942886212591 -0.3767414943842284 0.11238468395937078 0.1529743772017137 0.007698308614990156 -0.2131679762941064 0.23639691214233693 0.19118683875431786 -0.17363434111279843 -0.07365358169554756
sɛ́gbè -0.09213606787705043 0.13225962484510492 0.301861864971588 -0.21417081063881602 -0.16069529041195318 -0.2778433098022827 0.4048218911906792 -0.19478103029808544 -0.3639400496752991 0.17744547716060172 0.2595316556753125 0.37472737913062004 -0.34567995120306494 -0.16947102074622356 0.08991402383012054
éhúzú -0.08516124656474625 -0.2371583082938192 -0.11537698666390742 0.09803702890027256 -0.31416351019672606 0.290784486258405 -0.3724541862512145 0.21085553033657398 0.4020625307244324 0.0169519931957198 -0.5646390322322872 -0.1845579151864306 0.05182647484170237 -0.15485656959932373 0.013489358484200353
enangnon 0.4594940838185781 0.0645139508831331 0.25602918541704517 0.19915453221195548 0.715556206229203 -0.012242369572455357 -0.05978505405227585 -0.06344793662769324 -0.13682337963164698 -0.14086862616338594 -0.038254229625018066 0.18101682688344384 0.2293734723086428 -0.15717309605026172 -0.08545588557827036
vínyíkɛ̀n -0.2832828729444381 -0.3409428684686016 -0.2715797699130255 0.4562700255653057 -0.17984326617387492 0.15409585380676843 -0.4305440426899027 -0.005746213586635032 0.28354620530974517 -0.08027966019407975 -0.3298127195603695 -0.17402586602733794 -0.10960065555526681 -0.18841214989710767 -0.04274441774619914
ɖɑ -0.23520930925473252 0.25078189919918836 -0.3479689705637074 -0.24496143623185596 0.016162994691451892 -0.1110361569461077 -0.16126509162193667 -0.36153623135262836 -0.04302183482819222 -0.07030410414857745 0.04267094010751219 -0.12598847216580913 0.6053235685433878 0.28472852346958355 -0.2338308662545247
gbètondji -0.021167413266159733 0.18470250391227394 0.2724411983166975 -0.13961971688351835 -0.2336539432518377 -0.5482700128901093 0.2804929957558393 -0.114312556856991 -0.43646843410388925 0.2234444790878915 0.09457677966231551 0.001658159541833932 -0.13659486249463232 0.3718059039784309 -0.11324350487302315
vodungbé 0.11964425753420113 -0.1647657136088401 0.5923454225409087 0.24150137326261473 -0.09453059627477636 0.44097179308162604 0.07357050575413014 0.2799936760750589 -0.006661754413234374 -0.05167623714230311 0.14670383403621642 -0.010904048234449707 0.09096152106009729 -0.4745791449940625 -0.05174889458557956
dɛcedomɛ̀ -0.06513237936205386 -0.3494043268761827 -0.0023425914555379535 0.4665787448288301 -0.2063035876582309 0.364862774781099 -0.5056712689338316 -0.09878759056724676 0.2808712527965424 -0.014700572608869797 -0.3028273650027275 -0.1251248250495638 -0.11857324334918196 -0.06766466311661444 -0.07170349367941903
boton 0.4804417697325795 0.09043396253786722 0.25601846820061686 0.1412801730036023 0.7153926584284814 -0.04707646517543681 -0.07789377247883551 -0.041114737807308344 -0.1165956799464689 -0.15151117097452382 0.053938881280277094 0.18862833663270162 0.1979904448655966 -0.16341923446932627 -0.09897294102149573
gbenankpon 0.12460127698738109 0.14552173710004995 0.037040439449211614 -0.10695310342760751 -0.10010333620183334 -0.44083827755704236 0.20255127809739534 -0.08006332062715604 -0.709715377337548 0.016085522939973052 0.009229278121600988 -0.23477538028934847 -0.36268848235874906 0.03230041947439393 -0.03686416024392724
cococodji -0.11737802805731272 0.11345389243934158 -0.03765870625980487 0.12892923478521817 0.3932219762149652 -0.18766155037255494 -0.1154907298286255 0.34176186682664583 0.35779210777335607 0.04291056078338385 0.11845599606598567 -0.05014099711670721 0.06183410638052795 0.3053362508235976 0.6248281811265326
tlíjì 0.04840775087991069 -0.01850189798063471 -0.18490391865378333 -0.6560768747187385 -0.146068935248503 -0.22587232885056682 0.18348256359243473 0.05656489332851453 -0.263817780569745 0.155343319746213 0.22399121237347416 -0.0265952632084101 -0.43116168767904073 -0.2953262318044083 -0.036755597815367774
nájɛ̀nyìɖé 0.12822382978301 0.07735348844170993 0.2187365186247473 -0.3143469535403682 -0.14887500934953257 -0.23903847490711366 0.4880818089354823 -0.10825872417393995 -0.4559505992903279 -0.2405478303913904 0.30783422837863605 -0.18084522690514626 -0.21103618796364537 -0.22445699637481695 0.08178189908164146
byɔ́wá 0.28064242832771363 0.08450346758974894 0.14254922812586074 -0.1108500643448347 -0.46860821092471633 -0.1991252294765794 0.24899490206484992 0.030775150483928083 -0.35850997150962066 0.05444242693560596 0.2841643180552175 -0.015064453802497676 -0.342315500188431 0.3782615501767103 -0.2830195818120897
azangagbé 0.11956714013360935 -0.1652255602802781 0.5916685020163414 0.24188523137575976 -0.10225884208594468 0.4414032351661895 0.07221967620423951 0.27976835611882483 -0.0014017100127754409 -0.05064650077965583 0.14764287318334 -0.01349477280372589 0.08874581558540498 -0.4740889653750182 -0.0509369163444653
vivonyɔ́ 0.0076257470476159255 0.24180006639853338 -0.1389759945511791 -0.4972137128959612 -0.11460049502577509 -0.17106885266336885 0.12643890469102675 -0.20107870636511727 -0.30311625877809906 0.2483694829972046 0.37031000536749503 0.3244967125935793 -0.2681444284950496 -0.31460991588967063 -0.0669293637530661
mɛ́nyísù -0.33823106667931285 -0.5417110194087621 0.05007654544187931 0.04719483378360562 -0.1956249868394048 0.3416662535498456 -0.09235360559372444 -0.13824727294647832 0.4964657158497481 0.11460113796808244 -0.3242602460345787 0.05739062506206355 0.13012884042064846 -0.04452626543311608 0.11230230587872456
aɖǎnɖòsɛ́sí 0.1401501963346654 0.3769973695904571 0.021099138549267187 -0.4012056427192998 -0.4007195950599872 -0.11220015385121315 0.041583676028911554 0.05410817534279193 -0.5313657603527404 -0.2709507027435656 0.146135698924363 0.21384885133849588 -0.2542072805244202 0.03717400010077844 0.07378330570386427
agbomè -0.13782415182339777 0.15444360886854722 -0.04806511821147344 0.10495211065370999 0.39442772657249675 -0.17871629476162743 -0.14131905392667618 0.3414054059900533 0.32028225893573825 0.025760828093080605 0.10352431411477084 -0.008298054138271565 0.049051729919834475 0.30836618636028945 0.6363269000948694
hwɛmitɔnwɛ̀ǎ 0.06164126102739417 -0.07157047506113338 0.15190600393456397 -0.5085529011207186 -0.12962480621056813 -0.4957996216397937 -0.045801007390192994 0.14043675377862008 -0.5385004453254283 0.12210656604490021 0.04227439040646719 0.29026837870025096 -0.13551918445553482 -0.08864986982334377 0.025526163942745143
toovi 0.4359403020666868 0.018363472703126008 0.28384586847628585 0.2306308352388344 0.6986451247881961 0.032057099693766994 -0.049208413512530025 -0.045340619625469133 -0.1462743671877935 -0.17483608338952863 -0.0286491346739711 0.15744344225605092 0.28570803331523054 -0.0939227870224924 -0.10364067301056651
jezugbɛ́ -0.03376939931072306 0.2975261347965656 0.22813757138250101 -0.20384018730492 -0.12914509683562922 -0.08797531591959279 0.5025891800835431 -0.3078993853509892 -0.13022237043482876 -0.03457352776581903 0.3333081187126891 0.14694562674118217 -0.2944175202619332 0.41555546196301657 -0.17539430328798924
sossa 0.004128976504009379 -0.23654079185979054 -0.07007359558077851 0.33736407217362474 -0.317532559762137 0.23032385869859248 0.004685726852420476 0.06419954748039161 0.5002696827739772 0.135249278926039 -0.6236927646110614 -0.044043243513483925 -0.022306891250672155 -0.022021874461784295 0.006016999116677608
sagbo 0.25322161643506313 0.33896142046197636 0.19083991022990537 -0.267559289535684 -0.0054180547944708895 -0.15287041276037808 0.5368932386851265 0.12597417401621316 -0.3097549809827502 0.20213713442284625 0.28803381396436456 -0.07689839414933378 -0.04151059585353892 0.38580017981026515 0.0625728032650831
háɖényɔ́númɛɖé 0.1297730206958913 0.07454911436533201 0.023698754863554577 -0.5013129408114214 -0.28722781987784174 -0.4219535216708673 0.23970079637561192 0.11834510080380008 -0.21139621642922513 0.2856035056031168 0.02081171576436275 -0.03127842250238797 -0.5077928065091085 0.0512693310387215 0.004724365451913214
nàtɛ́nkpɔ́n 0.03329063868615803 0.24682705928871973 0.08906075885705755 -0.2384800768495353 0.07347162404952069 -0.2632125349431832 0.45588706179138244 -0.037815223124098914 -0.5841861440276517 -0.009681678547688657 -0.08213649960223177 -0.19569835751148915 -0.41386583087066936 0.16737704913868193 0.004553894923812886
gbedo 0.4429913158996554 0.06676320080480676 0.2545274611391362 0.1938450071077539 0.7213124290821082 -0.04201361989703797 -0.05377292990107517 -0.027711061757318838 -0.17091609100973848 -0.15523020683441086 -0.005340167990162936 0.19457568684160123 0.21765776540100387 -0.14445132504306762 -0.09842139461390699
orèmi -0.08707034466813832 -0.22847666068575392 -0.0327470005987747 0.23326583550571975 -0.18522698509219213 0.3143284389365431 -0.26675671410366353 0.24882763111784972 0.4434696952402682 -0.22362535741251094 -0.5525734915114313 0.002407665373401066 -0.033849041289386726 -0.01239282886471061 -0.24202399006004147
kúncenyɔ́ 0.1274414674306146 0.10933880927430051 0.09400500386573986 -0.5200198060366482 -0.41164895224106 -0.32664692646283794 0.32775577566101566 -0.05408298425220669 -0.38454850223977993 -0.13110229780250507 0.16626254198449344 -0.15398890076461785 -0.04651828947166449 0.286026567148886 -0.014376839141576258
mawuton 0.4695770369714599 0.05486990536848773 0.2951404578381286 0.14762847176909027 0.6930990082684944 -0.03296086134973809 -0.062055005930809086 -0.07625346398156353 -0.1641510529082976 -0.1169246109556519 0.006538844344028861 0.20603796961832402 0.18993869668148033 -0.20453106313823602 -0.10917813125811501
sèdjro -0.39807459143673934 0.256425028357292 0.2884242334876561 -0.40589548462368197 -0.012539486059846186 -0.1260731350394669 0.2930370977039672 -0.09900189757397056 -0.35532501315661846 0.019279260745116825 0.3239227626774559 0.1597039771322888 -0.3315042368694122 0.026954007679096097 -0.20911685954898734
sɛ́ɖégbè 0.07373317735984815 0.033735572499177045 0.17316749500540937 -0.3947431201175192 -0.1568316412863232 -0.40656909836716626 0.33692099399140163 -0.4384962148475867 -0.09605471445228568 -0.08064602907262708 0.27783084854545764 0.3928103598375475 -0.21974195566026017 -0.029231857208092925 -0.09680703482931055
sovi 0.11958570666975399 0.04937210949321201 0.2860778522987219 -0.28337449354268585 -0.1288423962361554 -0.4175942001599946 0.3372493714308208 -0.31793408080697444 -0.5838812009462081 0.11393104631361639 -0.008704067535019093 -0.09156035036929622 -0.10866271679075173 -0.15991370730316054 0.10129974083696788
mɛɖétunwunhǎn -0.07349223674629414 0.002854054886036885 0.11853697504094172 -0.466985929591597 0.0713280338266019 -0.45241581610554 0.21131484558797597 -0.12668412869117796 -0.5095739705274949 0.041270151941799386 0.23688308606573988 0.39018918859613455 -0.1046856754945005 0.06205966126205072 -0.043467352285536595
taceglá -0.17357563116581037 -0.06658496817750667 0.13953506278375616 -0.24052613960566077 0.10631547327869267 -0.2344966334482807 0.46958747925266164 -0.1627208729119942 -0.6154313736821105 0.35945197752455765 0.05450903676789678 0.11290685683684464 -0.13195770299801213 0.16769445485530748 -0.01014695029728675
hounyonvi 0.04538376443058975 -0.2339963643870253 -0.20701106811014916 0.20873944344278525 -0.5009723332173994 0.39863255324867614 -0.016587231665080217 -0.0860354339263502 0.3942599742765366 0.21077546050918847 -0.15198327325608718 -0.34782658399131944 0.061044944192035905 -0.22951429227907508 0.1860546309099592
malɔnwó 0.04865248385867626 0.33708503944752877 0.06161219248026271 -0.2412633334280922 -0.25024345509852103 -0.20525903798418724 0.48323024632460904 -0.2178024307789004 -0.35480237771033496 0.09239309968976576 0.224301760529846 -0.30602836008890977 -0.3836950222787487 -0.08073807539844291 -0.019497205045545012
sèdami -0.11150223315881319 -0.27593126514447247 -0.06956295423264787 0.3359703652149713 -0.12510534781076105 0.5151994081516771 -0.013055966111759687 0.07003001095306456 0.34713334840099497 0.34336016124813523 -0.39051675300087657 0.11602884785145184 0.1442266824949063 -0.17436076862237387 0.21828419746595037
porga -0.12128462478925783 0.11429912159673498 -0.042799992636317286 0.1264223891091976 0.40288765476546085 -0.18442480378732656 -0.11582416917651141 0.34411739484537823 0.36592897484102965 0.051239054802953744 0.10811410249481591 -0.042954719922806216 0.0451745626027541 0.30665349899619776 0.6153900173816401
ayo 0.4871942200175484 0.09970568323044729 0.2442462837840969 0.24612022901403738 0.6991192481852874 -0.0726013181745471 -0.07843045025681356 -0.026413920944692193 -0.0941833049146378 -0.17365384212422097 -0.027450922975476327 0.2103320322228218 0.17066112590532076 -0.08313144127765776 -0.09723345708677443
abă -0.24112016839593373 0.2561663286217229 -0.3615963094689528 -0.2476153845148129 -0.005398351699287639 -0.11224561029891249 -0.1681172475669914 -0.37226712324993044 -0.053974780628123935 -0.06660477660721933 0.024610643506080172 -0.09636453322380835 0.5920605264381109 0.2721491011380399 -0.24697444944494118
toffa -0.05285942020069955 -0.03815036043203319 -0.03557923791823981 -0.39639126163523447 -0.11387447338100319 -0.42830776814676946 0.04701364799913494 -0.17330929922129157 -0.317855074677023 0.400507580852262 0.12951585489313058 0.26627375394126734 -0.3381831021037765 0.2398105125785209 -0.28887511749893735
gbɛflínmì 0.05768536710676915 0.1011854873154844 0.11182015941564494 -0.4244933933377867 -0.016336050572969628 -0.22773461061239664 0.16618178471378914 -0.16805725213765046 -0.4711341615271055 0.3686814901636586 0.47012415827166987 0.20118979496204617 -0.14667953922164595 0.19881149824712485 0.026291295646074967
tɔ́nyínáɖì -0.2931655777150753 -0.428653914705683 -0.2513434460971428 0.20693512061718708 -0.15615148515854338 0.009526764205662215 -0.33917349934482605 -0.2819717365383521 0.281786825139675 0.00549086172347818 -0.4576842381535173 -0.18332394291320264 -0.003936350341110814 -0.24297426859971 -0.13081730593729995
gbɛwɛɖɔ̀ -0.06309263364432881 -0.3078351819064885 -0.11155084405410814 0.36331856413365965 -0.3195062217242217 0.39304482626964315 -0.27949656531482253 -0.19075383552044425 0.5068010343174716 0.28500250154632 -0.08602338476024217 0.006339482204601699 -0.03177130037314219 -0.17484766205234514 -0.05951428472731657
hwecewɛhún -0.1267907833594407 -0.31707416181634834 -0.0038934043021144477 0.2039820719470786 -0.4271332396535922 0.3121247854732528 -0.016926678884066362 0.1852197614619299 0.48676494230770306 -0.23846787376460798 -0.1721882519632487 -0.39657524765206803 0.12725396111817064 -0.14916583716272727 0.06563417981198635
hessou -0.09337950508683454 0.30831197168870705 0.20282903842551928 -0.3375240866591669 0.07776514603962857 -0.3198026680019509 0.48040380212512873 -0.1819080889864347 -0.25312490632649237 -0.117221105362438 0.23519423188502828 -0.23748400961464183 -0.2170363687832746 0.2790439159126143 -0.22254697935836606
sɛ́tɔ́nwɛ̀ -0.08200348108577983 -0.16552884394806508 -0.22922597432786276 0.4037225757522665 -0.26791499103885286 0.4625204491448729 -0.3223361700181172 -0.1504027974491279 0.3741821500866666 -0.271490359876767 -0.10335117941367183 -0.13341762913337857 -0.0290543797821283 -0.2987715886029794 -0.017113352354570364
tamɛnyɔ́ -0.2018187374192137 0.18869682655036604 -0.007370630552080927 -0.22830572460314996 0.10260703768834153 -0.5878711597511149 0.20167673424581908 0.01163385273718992 -0.4851845962085703 0.22214383107975627 0.14687970997651073 0.0678882394530481 -0.3145945047424756 0.2387988749177081 -0.02720031819037973
ɖagbewatɔ́ -0.15546090466761597 -0.30658397659902425 -0.17946276276871254 0.3814966026031975 -0.4444236929461773 0.31091192219388797 0.017174204997607998 0.0026163702502512965 0.25352924355050405 -0.025837314065372177 -0.5337176897466717 0.23065364160943289 -0.01494208134948873 0.019279348720639997 -0.012692288299235124
abiola 0.05550315065565002 0.0688611110758082 -0.004881158684413398 -0.20392201499620477 -0.3304110225288757 -0.17905832626393964 0.3654728116328022 -0.13714487754188112 -0.4186402864157571 -0.22957679011048693 0.28175152318672525 0.16543082850159643 -0.5178661144776447 0.10245797611222024 -0.1940908009429503
houenagnon 0.20416216847478222 0.0011350530501526902 -0.13263222635259772 -0.2970344321143562 -0.10727642288800165 -0.19721485357084056 0.23906632787584756 -0.28354299222530743 -0.3234115571681441 0.1917282159410086 0.38224887852444384 -0.2400910553300902 -0.5505189338162322 0.0880819200253169 0.06427759652127146
djossou 0.019173824553299634 -0.20789068692162332 0.05326147671232676 -0.361514997883781 -0.020059793176653247 -0.38758376459445115 0.1660431735969471 -0.1662405399815185 -0.3341694141137989 0.13829106814765463 0.40921616415492923 0.35550994973721667 -0.36525381366524245 0.0971871122156007 -0.20964906673217593
tanguiéta -0.08571741948915124 0.15202700214774104 -0.0704079064815701 0.1402131791462223 0.3680087906812152 -0.18520995290539286 -0.14425618528593945 0.35798179334794133 0.36059105865919083 0.03479432171842468 0.09188519373964309 -0.03442365002431908 0.059202440085679243 0.3228667430247318 0.6125621440078742
lanmalyá -0.3206736915852056 0.06417950445472621 0.219242544063703 -0.3972037515667877 0.030875071053768615 -0.46026777276442105 0.3018383222918101 0.14075540193846317 -0.5128403169379588 0.005962543488174048 0.1454572831491549 -0.07026014542967068 -0.2378543146664404 -0.11607101771322528 -0.00685965591983921
tchegnon 0.4370927580173961 0.07700339149258824 0.237215436274934 0.21526616251310146 0.6924345037975331 0.046513908455694475 -0.015254894007202579 -0.06584304442687572 -0.1686779884778462 -0.22632169019520695 -0.10002013174575446 0.15031634358579346 0.23101195473035435 -0.17371173126317419 -0.12019947875995936
houndayidji 0.1647359517364359 0.24198552057171832 0.15723689667138557 -0.291905242155531 -0.35370137440230226 -0.27566838296224083 0.25372985422742755 -0.1118552236483847 -0.3895152898555449 -0.19482706921018375 0.07507289903896372 -0.2749391938381487 -0.42658655119268707 -0.005916172552042718 -0.26385709523590317
dossou 0.3117189181420626 0.2101106211825667 0.11649195064391837 -0.5632417866984296 -0.182684727239065 -0.1617759412541021 0.2536157227493993 -0.00036237380541644055 -0.4502492443300306 -0.15892579375023122 0.3298948854815986 0.11247722348936431 -0.2045675478236227 0.013588866123925254 -0.09567944150181176
gbɛfá -0.18102986340397684 -0.044749662978570415 -0.25661952623945905 0.20575238240908453 -0.1871828233384625 0.7158393873098158 -0.13103780951659702 -0.0036324817687813414 0.44965418776029614 -0.12511366261847337 -0.14646776023033148 -0.044438152939059075 -0.11338631675380624 -0.1698874894538317 -0.052842401985476836
ayaovi -0.06763392937988007 -0.06046071144954358 -0.393018632887228 0.4343412607168257 -0.48797890621749496 0.3853787690114221 -0.11515348352599455 0.14136077851019632 0.22309570702759915 0.12893160899243572 -0.36164499260971833 0.11320921190627675 0.05105430183453224 0.09338420064800329 0.04773455375856434
sèwanou -0.12630111813775075 -0.37888113065792645 -0.29365693878256666 0.293805830930136 -0.36792751117611233 0.23513967673473668 -0.35005560018130366 0.0789863663474955 0.28313234033831225 -0.3126074755269831 -0.2900543020504037 -0.11021901165906967 -0.08279050334814474 -0.07383435059731697 -0.2396563933547455
enyɔ́ 0.21276714162685648 -0.046466534103061605 -0.05713122005844922 -0.459592169658221 -0.26961093654192747 -0.43317228197119373 -0.21723089712835192 -0.017051870465647812 -0.3751423967679492 0.20800566181942481 0.09605476693733418 0.2964124399171424 -0.24555762146011728 -0.1913089089729572 -0.2151611872065662
sɛ́wɛnɔɖɔ̀ -0.2888386360537229 -0.6040690642932222 -0.04851384542782859 0.24369991062609028 -0.07708007399755233 0.2687096726178771 -0.22766557398974369 0.13958369179947522 0.2991592691096269 -0.012599731563202893 -0.33817467471499907 -0.04555929565163523 -0.028418877213725494 -0.01701098527967838 -0.35999042005161896
ɖagbèsɛ́ -0.30504751678784325 -0.22072439330819968 -0.10916302377889735 0.5207028123237458 -0.36866806303877026 0.3839619369484136 -0.38641936512993935 -0.19601893542546045 0.2209532531686882 -0.0882170128411697 -0.11486698322493422 -0.04077835471016453 0.02233545410175625 -0.07851639175585177 0.14087327568411556
kɛ̀nɖìá -0.10907331533301698 -0.22956417596096937 -0.1363362066106394 0.25380268630818176 -0.1881889526591089 0.5991818614647954 -0.3254045987407892 -0.18435134252770824 0.3709159633099551 -0.15812214117907616 -0.2682581039945853 -0.20526411813518644 0.14414530179796398 0.013938747221339136 -0.132069416512172
oluwatoyin -0.030500613214243764 -0.4655430652529891 -0.3060631353347558 0.4843177723753979 -0.1408929110483124 0.22261434861937626 -0.02512877743016471 -0.11292741005976385 0.4101867365845902 0.13690224637143852 -0.38698866210265365 0.021303188036440455 0.037932275032098894 -0.16299834935101454 -0.03953951665364332
xwéjisun 0.30288999631393687 0.33638002805436434 0.26537306086994616 -0.06287213420556766 0.10535455887905813 0.33961694198119036 -0.2260160761575637 0.04333580838157957 0.4938460544170852 0.08822846632483154 -0.06898714448698212 -0.20355171071737246 0.3875709694376318 -0.2687131326438979 0.14170932863624927
gbɛwɛnɔsɔ́ -0.23900477672769999 -0.07349070649793242 0.2136399654175887 -0.43395471076389014 -0.15801199675702587 -0.5390003396024584 0.080409160892234 0.02747453216548792 -0.3368600725078999 0.15379621023874446 0.19641665117375512 -0.10930740919980142 -0.28095668866516565 0.2007361966370092 -0.2537568052303355
tɔ́nyíjɛ̀ -0.10161357503898731 0.15646397469637738 0.16787159528930248 -0.24902215647075923 -0.10041193611520406 -0.3407665102143413 0.025857753182101716 -0.08441342161303853 -0.6017449112197144 -0.0601673700537147 0.2508719327703906 -0.06733439204494208 -0.5406546048906165 0.06391520328315073 -0.09059833107982143
sɛ́náɖě 0.07787132091031033 -0.11322866114845345 -0.1543516513993769 -0.37128428031926236 -0.041304713247245134 -0.20384284083323886 0.08670116338804434 -0.012933809543767424 -0.49046895736661483 0.29321615892442343 0.4326219470049478 0.04888285378872594 -0.4342182243242006 -0.21990268801023866 0.10285336248226011
sɛ́másà -0.22604437193877286 -0.3541796017841195 -0.12408149760727248 0.404465485577641 -0.5274495047749403 0.15487513526570074 -0.0884198564013038 -0.1840981882882535 0.37514839376698395 -0.01887663700582312 -0.2465302012057343 0.0525651451599223 0.0570696951665081 -0.2662274310780053 0.12890496007887997
tɑxụ -0.26938870671731924 0.25665258733160157 -0.35509436462927174 -0.2457577738557704 -0.010251165513594833 -0.1057029564044593 -0.18733366034656526 -0.35357558839717573 -0.05485270455655361 -0.04911757005088312 0.01958583881019564 -0.10916177631679634 0.6066046914004238 0.24849883921328034 -0.23394315312912536
alɔsɔ́ -0.052743501386066524 -0.18735374757305004 -0.35338891856440185 0.0846773711245313 -0.15429073275835775 0.4400497041471641 -0.0647085041199745 0.12441267316115422 0.37176550866315655 0.09928906674352174 -0.619806539345125 -0.01607568538113644 0.1348564583919152 -0.16551212032582674 0.09363286498482269
awɔntịn -0.2513946344668047 0.2609821528738082 -0.3610530095746509 -0.2418493801844977 -0.00587131219954518 -0.10252206055091952 -0.1769398701836608 -0.36092056981612614 -0.04193611335600256 -0.06254293641609275 0.02088813113234355 -0.10464937825135451 0.5982275561198215 0.2702585232461963 -0.24221182285778675
tɔ́nyíɖì 0.27461313486996086 0.1377024408308932 0.10628346442159434 -0.24112414303045387 -0.14244719496668454 -0.30556780448431387 0.3713556856694013 -0.10096557022216611 -0.6220702893462603 0.34493371434495496 0.061328529130565655 0.17209115683460932 -0.12088304135840368 0.1232034233908854 -0.02629963557761459
alogon 0.4347379789656177 0.07796446497786247 0.21050875328246446 0.17803338761882553 0.7308010020528174 -0.08509882022490262 -0.05234679540199124 0.041786429292240905 -0.1706654833356772 -0.1901569979647822 0.029321880528095798 0.18357917689347167 0.20250573439086775 -0.1792647918830202 -0.08584671068903697
hwenusù -0.1037427050401938 -0.39678219500885525 -0.3099621702483968 0.1715177837349791 -0.2480840940543713 0.4450507338775822 -0.20034107396051598 0.01587425177914977 0.39394090330133136 -0.24052735384515336 -0.14720692224480558 -0.37005962085876565 0.14102749830126948 -0.0021414002407289974 0.10189797605974554
sɔmázégekpɔ́ -0.2905456806619983 -0.4427505651650589 0.06304285606692098 0.3048358978191268 -0.447587373628851 0.29562015957692744 0.11288959722194694 0.03590521740144214 0.28029636594948554 -0.12957847336425754 -0.2664584259093327 0.010185814275070823 0.34409081937257413 -0.1611221163439002 0.05800563479237732
ɖagbè 0.0038011826486271973 0.3483331256657556 0.15379475398821194 -0.29806300651421047 -0.3205515546572945 -0.5323413000667181 0.3893929128805795 0.03132554532783279 -0.3498859377233267 0.07923676115569418 0.039210261206340274 0.16507051425841304 -0.07127323213403089 -0.11060808495816198 -0.2187628674677192
eloginisè -0.2684807635051174 -0.2249080515884951 -0.060250733134496595 0.3984743875687141 -0.3749409058768722 0.4383354480031833 -0.2859858488392202 0.21773178634468715 0.1381417985227547 -0.01302283479146262 -0.050951712416975346 0.07207192965564323 0.1650933089853321 -0.37226130628647747 0.23115794047964291
tɔ́nyísɛ́ 0.04383906999893204 0.002089310228312176 -0.013809969690294462 -0.13299740337145063 -0.1605548875589457 -0.3439047087744582 0.35664535282955573 -0.10568132822025471 -0.42284217894848625 0.013649434534165826 0.5567580541282017 0.04090543792068119 -0.29763185233277323 0.184436304592011 -0.2855487177562932
alonoumi 0.45744355248356955 0.09595445198616787 0.22285051810229947 0.1919274527673449 0.7353553763686955 -0.09418355766604077 -0.06880385758588449 0.0391170437155103 -0.16354954370092392 -0.12620075916057288 0.03342001002258475 0.15122611599082914 0.18121424110453993 -0.15231532227151634 -0.11425077825893802
ɖagbenyɔ́ -0.21421859488887737 -0.31406231767096543 -0.32902919007045855 0.4427456400193633 -0.19840420440804174 0.46170883678498914 -0.1543834459159065 -0.08329124626949626 0.40065752429746226 0.14591108941222655 -0.1693221325840692 0.14710568317674758 0.07466467736943962 -0.017603289326158348 0.15950479536598397
nobime 0.4149410941210391 0.02633958254487675 0.24756636043854552 0.2641404250948374 0.7291494689601935 -1.060241738121219e-06 -0.05873061401217538 -0.033609732610112596 -0.10331533939303299 -0.16498055415212945 -0.04523387267714306 0.13935070420962928 0.22780479320733715 -0.19835622073877535 -0.08124292076041853
mahougnon 0.4757417864956906 0.029896908999044756 0.2006529308093403 0.19101350631071004 0.7408978266157344 0.0059130925108508625 -0.09943536345432813 -0.056922497072518674 -0.11537485689198963 -0.14903068550218204 -0.004426646240807991 0.14984216213649768 0.1698893582706555 -0.1968654902953761 -0.0726711182979936
sɛ́tɔ̀nnyɔ́ -0.25507055126966943 -0.2393331998235225 -0.21288095516989017 0.506009568556369 -0.49528280720998896 0.19102044076828723 -0.05086783918665334 0.2255007583111082 0.328240702369201 -0.05039087766689761 -0.2964978053169953 -0.1404647821597854 -0.0441809690506002 0.001356641782988703 0.13382155479454189
kõli -0.2528333427313699 0.2556515240315828 -0.371563064847794 -0.2319461479680671 -0.013636752732234388 -0.09934884366068054 -0.1778121924567605 -0.358051079988115 -0.02642899721110337 -0.06945984647229378 0.01588300905454645 -0.09484109428136467 0.6012898161861292 0.2687101608052519 -0.2430031465091348
alɔ -0.24797054964195825 0.2632482790465285 -0.34953901360061906 -0.2405587700723719 0.005392796186937861 -0.09939900592283908 -0.18670217632932948 -0.3617625498450751 -0.04995202030014117 -0.05791905552959859 0.0201322410572915 -0.11477671711956042 0.603301777715384 0.27025188260092986 -0.2361649346562634
djeregbé -0.11895470201686079 0.14100445878438925 -0.057126731581195384 0.13049181469901697 0.3882829822045438 -0.17879655527962368 -0.10413548644603104 0.34872167654868375 0.3569632245920264 0.012572208333474213 0.11473737421596418 -0.025613146102909993 0.04978692798182584 0.31049910817680415 0.6236163007639475
akɔ̀wɛnɔmɔ̀ 0.05384919655988762 -0.2640434378394499 -0.2826811335737637 0.2956494182860912 -0.15342967386177814 0.6228222217986752 -0.21508228906389182 0.010914494832858179 0.22525329625403145 -0.18343469930191217 -0.3094247858027543 -0.04630836723898944 0.24628993329008175 -0.1616089524583458 -0.1683043253949882
jònúgbɛ̀ -0.15132981435401652 -0.5418819963694592 -0.18946067510014367 0.1927739335145481 -0.10567464510290438 0.26490641761891187 -0.2931248179513704 0.029340497315981783 0.516739122379716 0.05212114829752543 -0.3618970519564027 -0.10003021044092326 0.06287028467719717 -0.10906658000619344 0.10717874721524101
vivò -0.0519401674281996 0.33820069799167224 -0.07551040207350976 -0.5538698309591766 -0.06481236941445362 -0.35655732186696737 0.20610424488503828 0.12809515237022728 -0.10452245516486261 -0.02428403089684309 0.27913763527054825 0.13175684219127556 -0.4432373273895611 0.05311944212702988 -0.2619821837657987
tɔ́cɛ́mɛ̀ 0.2564621993825597 0.06062262463128428 0.20464895522337667 -0.44894655509378173 -0.19934858318282947 -0.4847602530460645 0.0372728218464681 0.1546323810759933 -0.3993334482051981 -0.022378092570765572 0.02004449949870315 -0.17839637126946506 -0.3162188799861862 0.23353541543823966 -0.19065517856292644
yenoukoumè -0.20384408282014718 -0.45017033202645473 -0.15800834936764035 0.0666840829851272 -0.2139524824506256 0.16187111895999104 -0.30543187004891237 0.29472798605069833 0.5699527841879718 0.008468652410191783 -0.2738101993504051 -0.09054489320555226 0.22791452537848125 -0.09419826458883895 -0.00861320294488498
tɛnigbé 0.12118799957804888 -0.16620091752602692 0.5939004259356796 0.24334888293646914 -0.09191435614342837 0.4403362690457234 0.07113906708368695 0.2775965410442235 -0.006276954191545874 -0.050517979379484296 0.1457693871579801 -0.004365062040937028 0.0884976118461989 -0.47347538004864964 -0.05412374118605746
ndali -0.12972097668931787 0.12339127981534273 -0.03569171679473855 0.12073800836045108 0.4169123890687953 -0.22206709983894637 -0.09460198940005193 0.306745569909759 0.3541746864219607 0.03351582142167934 0.10305349727566782 -0.04372813293344819 0.06558645313661879 0.3243370576231658 0.6117930066704158
axɔsuzangbé 0.117167977368473 -0.16966639975178743 0.5903720456585114 0.24569507459572668 -0.09995463611469141 0.4445373677698029 0.07817737645657266 0.2767981411528826 -0.005262375161172467 -0.048958359816415546 0.14316745044730364 -0.014328510087018933 0.0861456140207361 -0.4719898764110155 -0.05218256263058654
segla -0.2429939355609124 -0.0009798960867013803 0.12971973524728567 -0.39080548669118736 0.053783873528187955 -0.4846352579376172 0.23023960671036217 -0.1144245461593674 -0.25002802977306576 0.187932964245755 0.4961879741999053 0.13004266321966668 -0.25940861600592563 0.05814387935619839 -0.17240958655975336
nyɔ̌xlɛ́ -0.18397609327700376 -0.16877094264611026 -0.3162206425520134 0.20621044307520864 -0.3950644881027499 0.26301942765221736 -0.24868724364685724 0.08081727102392124 0.6041569824624398 -0.039797561908909915 -0.2622371977196464 0.13678559853611907 -0.08481682971252104 -0.1601238394240915 0.10461560497597303
kérou -0.1260712705221297 0.1412495104466245 -0.04594382812651686 0.11960446840099348 0.3955049649334001 -0.19587320624779694 -0.13079526832196123 0.3298760102344597 0.3442067585102175 0.038829001481434915 0.10242775645923069 -0.037288864046291816 0.06454086864166149 0.3195383892644581 0.6225334833482327
gbɛ̀tɔ́jɛ́nnányí -0.24163078293505616 -0.5237370216120013 -0.01819147380160316 0.3560710025527412 -0.11016474576695152 0.18320873380584407 -0.33332053414631424 0.13261198678190203 0.49831731772976384 -0.1544236887785228 -0.16111332437991208 -0.015305677489191786 0.07401324068094355 -0.23758273650883296 0.02905407772719897
tossoulegue -0.22149690258903465 -0.050686933100118015 -0.2689578740079446 0.0914254604492388 -0.1560045666524462 0.23711664301728616 0.02611172219239163 0.2601411188681026 0.7089693011110583 -0.10766041687866974 -0.25105604446919644 -0.21516964145178163 0.19893176480928113 -0.14813732430866494 0.16617466066759692
gbɛ̀tɔ́nnyínǔgbó -0.253602901187765 -0.33374126710684276 0.05593442539864421 0.20445856200543328 -0.4257748912903724 0.3688242672122805 -0.24324365503885909 -0.09033661189961388 0.28353206940178505 0.05054823499796259 -0.5324231839997898 -0.05861084355788491 -0.030539468128787137 0.13729014241745646 0.012963247299278169
mɛɖagbè 0.181659093566594 0.37532005413979236 0.25564986420492253 -0.35463459824943144 0.0166575929313461 -0.23132225194610484 0.3203972694675996 -0.28358678762459066 -0.48622407796440237 -0.1522033066616599 0.1523570940870051 0.12539730494863058 -0.23712503593950954 0.19271395370620384 -0.029458614953380976
jivɛ́ɖè 0.015493657426948748 0.10173325423402578 0.2195794728516299 -0.5322785916692063 -0.2450870216586443 -0.3330761097169377 0.11263476414522954 0.21811821878004797 -0.40756792506938244 0.11744485236275987 0.06872200441991619 -0.15222906466855113 -0.2990986138326267 0.35306539996280556 0.029812634413232248
mahussedeh 0.44494011550487333 0.051572554299006416 0.2985573812558561 0.17868782391891633 0.6859687279410844 -0.008527886674620426 -0.025497768312199267 -0.09624337985609281 -0.1781592097173514 -0.15931721359073603 -0.06571706471092419 0.2324493898989245 0.24013937129709056 -0.12086174691416907 -0.08125735061568778
tɔ́ɖɔ̀mɔ̌ 0.010760108478265962 0.13936082896379054 -0.057852421506735106 -0.25848715276573997 -0.14382649604483336 0.01666713943872274 0.11226764220388762 -0.05265397506959597 -0.2552848259622981 0.23286623019457622 0.4033095001860848 -0.2891663373279095 -0.6750338437053574 0.15896194423721477 -0.14900161191658784
waɖáyǐ 0.25585497297244114 0.11449553097224706 0.055866129168186014 -0.48538225962346193 -0.472778885967654 -0.35800460249984567 0.2060380473577384 0.1329334379678781 -0.2364782371486301 -0.03880002989845416 0.1812344320695991 0.034926130581473404 -0.4054766852347902 0.03894763179512631 -0.0964842190915821
sènan 0.2350260305644425 0.2811543636947929 -0.039770991415158545 -0.4123621722093355 -0.12491818824283714 -0.2995434039022685 0.5336761418968679 -0.16162427896701118 -0.3354205339179696 0.13212231427449514 0.014346243861782517 0.1673510225380161 -0.26350674045148614 -0.17206199219415774 0.1307836592992316
péhonko -0.09228354632643052 0.14935961965028746 -0.05446516218886305 0.13955467516120032 0.38420036606909175 -0.17418509082674327 -0.11491090769156376 0.3494738730956866 0.35222185199654654 0.00114068372745611 0.11403961522613366 -0.029524063232911502 0.06959428001215466 0.30743574341336316 0.6286248927606988
dangbo -0.10152294629072216 0.1354785993390345 -0.035362858996576575 0.1333258587108287 0.3953375301162519 -0.18289693909494834 -0.1326915916696307 0.3403839467904867 0.34797099035854373 0.024760498228110887 0.11366298121887627 -0.0340514409871531 0.0580989989627262 0.31045204644257884 0.6263665331462707
dǒvɛ̀núkɛ̀n -0.2541306299867775 0.09286674461447304 0.2572712971136952 -0.3563199346361968 -0.24088671678865195 -0.325810401960932 0.017829423319592776 -0.13718242811328782 -0.3859808766728793 -0.03231212134709032 0.21769420055253397 -0.17304322125934293 -0.558688924252126 -0.045639371790100934 0.0669077891649464
sezonlin -0.06595045321581428 0.21788173627570656 -0.08251941094927538 -0.26145003378764325 -0.01697917057104959 -0.3107373290061366 0.1428623508827107 -0.2048090052856766 -0.314054989477298 0.05030668381017166 0.21692826945282107 0.16813867121825665 -0.5707839121392561 -0.09811802769216384 -0.4438359998627332
