86 10
boys_name -0.006890097145261112 -0.05448640182611172 0.06384932142543309 0.057662637876480884 -0.234481607054829 0.3934494436072366 -0.047260827065775377 -0.01931259197577791 0.03878344346189275 0.07207762178622448
girls_name -0.1604645821545936 -0.028508565464758783 -0.038472104505614224 -0.1058864317495047 0.20107014121349445 -0.22429450056380723 0.19750938941237914 -0.32012344795459113 -0.07717331447763458 0.22452004606389966
body_parts 0.030722155226404358 -0.08930607496610009 -0.19187215368529462 -0.1814939685506357 0.03886610825022603 -0.1929075817055248 -0.17582964219529137 0.2756403470457544 -0.02807029599409564 -0.3013555545035934
nobian_city 0.29486816518742415 0.4266584436258933 0.2590122687217054 0.47270728900469416 0.07243102778241928 -0.1625851463028817 0.08123458914996437 0.09073630283277992 0.12689735064336866 -0.01823329664440053
gumur -0.04177806256015469 -0.11227952002456618 -0.4008302033536891 -0.31064666102397326 -0.07443405656563283 -0.08628392017002331 -0.2600371860022792 0.45384338458161855 -0.19009442473609273 -0.5935216763321539
hassan 0.021455523147040793 -0.3093397684145881 -0.16463041783572627 0.05913487598919334 -0.4411538300973572 0.6676220181425708 -0.017736948465721002 -0.03668051361981048 0.29997281155135525 0.2873383908039309
ukki 0.07522960963611602 -0.15105899538311995 -0.14318907667289965 -0.2948797300818591 0.09809635999365651 -0.295279080873636 -0.28411118455433876 0.2808919834419313 0.0787746053263801 -0.7176628663544791
sâmê 0.049335539379011736 -0.15145974574445845 -0.23158277594564983 -0.4264668201662157 -0.07883385896050213 -0.1403663956383429 -0.3706324921156093 0.4382859343810677 0.1010234815505348 -0.5746177880131801
sela -0.07907623714210212 -0.16170485519976419 0.011827990174808817 -0.257363129022451 0.1464826837111506 -0.34855773973933313 0.4817878923893217 -0.6295540962573982 -0.18475980907271955 0.2285214916164227
napata 0.33150885979731126 0.48864309293294456 0.2525034571929053 0.6641688656337296 0.049833191314318875 -0.26515949539426303 0.023219878747424077 0.08807379045886994 0.15196787838995207 -0.05928173169927047
toshka 0.2960151490477023 0.50847294365688 0.28364045680579963 0.6497852141882607 0.03984565738976817 -0.2102165643122145 0.10564231863605246 0.21692686294092894 0.03156168714409168 -0.007337690022965695
semnâ 0.3797382919947809 0.6039060142835218 0.3017533213326033 0.5202374746868978 0.20176812126301544 -0.1419529728506462 0.10969512726266348 0.1313807086503601 0.07850213908411578 -0.03261425384437317
adama -0.01878086329307687 -0.2137742384483776 0.3656071110649772 -0.17985032635083584 -0.3927025875578314 0.7535875731253278 0.006739250746343646 -0.05180078302397584 -0.016359273811139996 0.12488810073086226
ag 0.18272094489524768 0.03220991288970582 -0.2706321314166788 -0.3783020194749421 0.018431000989141733 -0.35763705014246583 -0.4776404083175668 0.4004721958741397 0.08209911181460244 -0.4018493923920603
halu -0.27508639457404954 -0.03417765120029628 -0.14597212504738108 -0.1911595043663952 0.5783552199407379 -0.28878420186702 0.1161228817116737 -0.3847983107101813 0.011286289791670108 0.4863291901151954
nolua -0.32187089936112756 -0.08796737466540289 0.06690547054257859 0.07869197565044078 0.3372355193930672 -0.28031811329823697 0.41389160183804097 -0.6040547063212377 -0.08442087919746992 0.3230818784947833
nurî 0.39418313504894203 0.4925042531505893 0.2980184733773027 0.5590405954115139 0.0685135763709586 -0.2225568673776769 0.12151522571021292 0.22458240883311367 0.22847356085157147 -0.019182724703413673
mâgn -0.12546287398450273 -0.1579732012404468 -0.4169806369724477 -0.2055984796306683 0.11486536225150595 -0.2957920361368327 -0.26438167830392195 0.5463455280362015 -0.24635022755736088 -0.3745552151242795
fatima -0.47761115303845364 -0.1440462062562899 -0.10499142296165599 -0.30749554267796236 0.3876478948219046 -0.364221845654263 0.32239155212678455 -0.3897937653408467 -0.13447193803858512 0.22726836365348288
ketti -0.06221795973575774 0.10843513623820623 -0.08318751158897528 0.08237635896503073 -0.5959834149521311 0.7267418076707147 -0.04023612517170841 -0.054545277531548524 -0.035634792654000845 0.17334673142919563
samîr 0.032580115299904955 -0.43425540176816196 0.07375391892607912 0.29700968681251605 -0.27084596185768345 0.7605504946037671 -0.10815011295970411 -0.01692798660706778 0.014845060474560268 0.055832449633508745
umar 0.06969952714537356 -0.15964610590153822 0.10986534048017695 0.19008374107243414 -0.38803812784515357 0.7439211204993722 -0.13483837131724832 -0.3025180235229459 -0.22024584411034073 0.016058943699624142
eddi-na-sarbê 0.036637782885606096 0.10898577226074359 -0.5092130814118306 -0.3286812322511007 0.1289240857369591 -0.29735486131735567 -0.32038335673288365 0.41010601284760356 -0.04030940557210962 -0.4498370578744644
fatou -0.004075985629760498 -0.1357468773055781 -0.10213168346369755 -0.10729008268206351 0.426586504348512 -0.31139063974777786 0.2572625983083942 -0.5594431134684229 -0.20007592262440296 0.45563033320932295
sorkatti 0.22100365138414133 0.027461723435663873 0.18291064229062062 0.06649033038618302 -0.5812652748162204 0.6421620482765124 -0.20277494783308828 -0.02512317274501135 -0.16125487223271545 0.18006319524577394
og -0.15975083144659516 -0.08640273448142745 -0.20053480267160817 -0.2399327680630334 0.03232423034927852 -0.4111622913939437 -0.3344246916822877 0.3550449532566389 -0.07857265574440091 -0.6407849515610526
daria -0.31773780409522995 -0.23234524997818914 -0.09830753825877638 -0.1035215184615825 0.29509562407566325 -0.4176974712495836 0.21998411734825832 -0.47789633298966055 -0.38057984879809004 0.291527891038382
shât 0.25478767768654004 0.5603234083504327 0.31763691469313193 0.6267642832052902 0.10536264487357881 -0.21518564052158853 0.08724292224205642 0.029467354251967774 0.15427793105576224 0.08743390885290596
osha -0.14886227637643473 -0.005665589197049876 0.07619790078959815 -0.06293442390819821 0.27086167510349535 -0.5250806843937265 0.13820923406621177 -0.6059856421789246 -0.13432707931135449 0.39797508434441353
hammit 0.008885548825492131 -0.24786845769363552 0.019510992942434656 0.1373569041421521 -0.43861965237889183 0.7809020757315888 0.00378076593964402 -0.22830458720654795 0.06725788153305177 -0.11965658704465972
majdolên -0.32711966901931566 -0.02863858201403252 -0.09987862902100575 -0.19933188050568 0.20706788246449623 -0.3104518252964574 0.5843911019093941 -0.4909175049716854 0.040378834195064925 0.28899920518687333
tû 0.17889393399451578 -0.10310422499965481 -0.2978942941316859 -0.5315076069177436 0.12394644119698692 -0.3105189456890869 -0.2159264707155125 0.3526649742271068 0.04419078331107853 -0.5151497419981707
nîd 0.19214271538344346 -0.22102722735113906 -0.38135105839936023 -0.17130737222639267 0.1284089293270314 -0.4559345443272051 -0.21807624304751122 0.5103924866207227 0.05695636365785523 -0.3896120739548887
kakram -0.08356547529013043 -0.2873347808047168 -0.15756713991826846 -0.4984926817805516 0.08435467731802287 -0.19066822656671445 -0.3266174339300679 0.45226526916963133 -0.13557910872088133 -0.47998094430772564
ur 0.09429348034031501 -0.06035491467920564 -0.1270322156322286 -0.37626957280546425 0.16960380519071677 -0.35391100052361746 -0.4017600695811434 0.579586023789851 0.026030855064701878 -0.36371416667288975
tirhaqa 0.15617122849896234 -0.08909837889963504 0.20720060278773475 0.1314983326218958 -0.5643292055510951 0.6976556162296761 0.08288856630003615 0.1148833037861223 0.1217996853912766 0.12575730798920673
ashri -0.38020456289908705 -0.10232055197593334 -0.04247545721931393 -0.15903300039106683 0.41524865006664563 -0.45335530989980366 0.256995646013833 -0.4417137550927957 0.16091709878355878 0.3296177295898027
fûd 0.10419909547971874 -0.17999787968767553 -0.36625141499554803 -0.06798949370760844 -0.04428109407930218 -0.28259366076199344 -0.25146695239994454 0.4766424860257252 -0.0307544216865999 -0.6248673504999079
hammid -0.1264578934941217 -0.029639312857960683 0.13717767738634581 0.08771628644354316 -0.7221694927056818 0.5808966683834551 -0.04027217711407522 -0.17156692807693802 0.08603018586043884 0.029914382296772915
abrî 0.4027752605248082 0.4406078022466528 0.33885705378020886 0.660878025025695 0.05009293478851897 -0.10793829815175139 0.08822835878646132 0.1556171981985131 0.11590747162601361 0.016896525768781007
delgô 0.30868394666448196 0.5629916098465222 0.2609893490496615 0.5690117435836111 0.13776325118838456 -0.21302385847747918 0.02533714483001414 0.04416218747948741 0.3010517760608532 -0.02116216564436839
kul 0.04686862974268595 -0.2885028850614254 -0.04466076960178123 -0.29165268602159305 0.14453336114332047 -0.3325712688159093 -0.309976166602455 0.4846725911206436 -0.10954193676742223 -0.5569936499303205
amaros -0.27086768889238705 0.0021085661632272486 -0.06711228662179128 -0.23063491975544329 0.49402290224390294 -0.18967872096136526 0.44539622313879423 -0.4468671451663081 0.10804235449341942 0.35152855612245815
duwana -0.11799664094296616 0.10754158915621352 -0.07313837736142373 -0.3105323025720784 0.22539863085773598 -0.38042911518088757 0.5234163042183775 -0.48156520747790715 -0.15966928271457465 0.33214337725504234
kawa 0.37388438883383396 0.5577212428181701 0.3279856751461508 0.5462349497548749 0.11417500175175244 -0.24070654221660803 0.0570544172106001 0.09378257064910607 0.1777948318731414 -0.019064456344024674
iisib -0.217965728363862 -0.04401536202830036 0.06507393067322474 0.11451560513715692 -0.23474997771956949 0.8482727588168578 0.09932661709627769 -0.007261759193750499 0.27315803759931584 0.1602286245811102
fokki 0.14304181725172843 -0.32509697215453404 -0.47633909779028843 -0.3527239860153592 0.03185684454380089 -0.2313656175668689 -0.3160584598571616 0.29626189508527334 -0.15355178324971044 -0.44859701951044423
sedeinga 0.40947511058379366 0.5456773850234621 0.33987958599537865 0.5410364470448555 0.008268814898567359 -0.22988855532205987 0.1249176431579828 0.1386988875452567 0.08186510888532593 -0.08046313748310141
shihali -0.20839259680275324 -0.18008207466887854 0.28456259369802944 0.05544322277287231 -0.4173434063957055 0.6924034107824354 -0.3185071559627441 -0.1036571073628707 -0.07385128182655423 0.07632928231124296
kinya -0.15607019320086704 0.036175114609179514 0.22818335741317902 0.2865845742330094 -0.42148142480805983 0.7223265862232736 -0.09746070596911868 -0.014063555712510488 0.2765260262060869 -0.013972553782345567
oshi -0.11161989073003134 0.11550530579281677 0.19527912244064904 0.027653250879595644 -0.5236507402970477 0.6829266946558538 -0.242738292659095 0.17242116529559376 0.08140652138751653 0.22391241371801976
unatti -0.11301453133974008 0.1309651232003037 0.13655448019528474 -0.16569524052000287 0.4261148321370068 -0.4283135526979765 0.33827960029881077 -0.5227164857498529 -0.10985401197251694 0.34493522646530106
kinah -0.13768304347540553 -0.35148093605804237 0.18245782488183954 0.19007479906349692 -0.5812543051841425 0.6061953767196865 -0.04208314154141637 0.12115174707313016 -0.023812454408263763 0.05385367650548936
nabra -0.41831704695654487 0.202114893235427 -0.2117666053643064 -0.15161484820178278 0.33540502245911696 -0.3766099890065207 0.330922983788078 -0.47029230230791275 -0.14833289447175374 0.22898635119468252
eddi 0.1509188321971483 -0.1898501089912466 -0.43959966118927424 -0.3012253907659536 -0.004516258616846021 -0.4298765079701925 -0.4364990448500531 0.3638463566249179 0.016761501804498452 -0.31881510971743077
merowê 0.3386706708038896 0.5444626560854237 0.31089702995849533 0.5262861184887186 -0.05004591770453295 -0.2842387556418824 0.12273175762642334 0.11791204584921448 0.25682772527845077 -0.05348956496879492
oshallah 0.21730745558103254 -0.06250962040024204 0.07605830592925049 -0.12020779685309624 -0.5458494014128348 0.7079564354801053 -0.11280084533062254 -0.049450045215043995 0.16664059899546416 0.11776574448971311
miska -0.17933070490321873 -0.18389774282891977 0.0641241722461165 -0.2681428553284033 0.3860886033580338 -0.3330983691520031 0.3130310659661565 -0.4054255999000969 -0.054300630325122286 0.5314070344905619
nar 0.182907914588008 -0.27979566871904765 -0.4091860598520246 -0.23184623569512217 0.1124935445713567 -0.22245556358807092 -0.07588896992721371 0.5927789828074822 -0.12125423436895562 -0.442562790380431
tabajî 0.3779233023427619 0.5554503292206436 0.36568501831386124 0.5094912031292297 0.08888422590322598 -0.16393700405264636 0.16153771247480123 0.03845219123131672 0.22822720019596948 -0.033575758765144126
sâlah -0.00683752027285143 -0.09582239563741629 0.10635580665654748 -0.14013994223637666 -0.3561645247861729 0.8578418637491929 0.17627096128271832 -0.089956096328687 0.11859537395854217 -0.036986330702970804
dongolâ 0.2300036143975747 0.594575301429005 0.29105991197651915 0.5916297721240047 0.04485698997345723 -0.20698667691670763 0.1433321780612718 0.17262785294434188 0.1535408292440286 0.04507998486602831
koloda -0.15748383237756675 -0.04713450841770296 0.19855818264357858 0.09764142715321439 -0.44563529788808315 0.6675088183436055 -0.17394235437428715 0.14599920485366652 0.38766951441835235 0.13126580961023482
appa -0.3003481347090913 0.08936496368405399 -0.22940604088044295 -0.22923383167173686 0.261602741087076 -0.27327436568910357 0.19060654225092524 -0.5291758948343036 -0.3237910954448026 0.429094159869084
el-kurru 0.34945785986090266 0.5047461762543085 0.309294514380807 0.6340813896334682 0.15062797573962297 -0.1485308680141209 0.11454087535614575 0.09609500057281559 0.08150040929628515 -0.04226907722647734
kâra -0.1813992440840772 -0.10217556181515901 -0.20940422937567763 -0.07355959274639542 0.41724448440182155 -0.3252382357781753 0.0935919512401196 -0.6672766889804869 -0.17869181013800414 0.29518906155982777
tambal 0.032605874029244745 -0.2174407656461503 0.20788795966516177 -0.1214153200347226 -0.3721071083129897 0.760551743760974 -0.12682923032772694 0.14190365116537637 0.16539146583724468 0.2557172065179024
shigirti -0.07531519775584557 -0.04840909634148771 -0.39698120320437746 -0.34131436445501184 0.021331828734635634 -0.3317045352074828 -0.3489729259489315 0.5899703124467698 -0.08489132265702189 -0.27755258449418146
noqod 0.2355527162366845 -0.15952091822555756 0.0912882952302387 0.1103842468321071 -0.30861891189224827 0.8213096379363519 -0.07101895736382782 0.04004586150602555 -0.12084506953368684 0.24937344186966284
soriģ -0.06434607870695416 0.05112899378184668 -0.2865022202259458 -0.24876479826308884 0.060602414075715094 -0.433894087863046 -0.2845740967183791 0.44881252003037014 0.052015367949107924 -0.5684727375180625
fanna -0.21004139370791017 -0.07244076581976364 -0.07606763978318376 -0.3677392173266163 0.09585331144222017 -0.45129675232327376 0.1877837203266976 -0.5772710739618042 -0.08737205257940969 0.40574224528907704
amna -0.23365936400718 0.09584359857823346 -0.04005186961923691 -0.09677909161730845 0.5009854201050208 -0.3448351556846301 0.1836625997834722 -0.4820921546950823 -0.3794915986012007 0.3233820842876005
arbaab -0.07325200275500861 -0.45068211796052937 0.24763870332031543 -0.019653433809990645 -0.37919349384640716 0.6791437236881289 0.12512183685947945 0.024028970886790495 0.14265260286841938 0.17407768373594587
esmar 0.012263016627135663 -0.12493572602958186 -0.30318385691490446 -0.22589950898121675 0.2428864819745672 -0.3042199246768203 -0.09687589771263798 0.4514702089987958 -0.20030831494869514 -0.6156309710820098
duģussi -0.11085287728610849 -0.039875816774168155 -0.3972760267956121 -0.25127160286499794 -0.03811760334834624 -0.30603933730124605 -0.21321304764650245 0.5820216502199211 0.1537204247195499 -0.4588213257421616
kemâl 0.01893234066601826 -0.11726208090092634 0.30833948394914046 0.08773660125300069 -0.16979351130467488 0.8887923809676966 -0.13723411980054037 -0.05628794116785119 -0.04686136198665142 -0.03157785603587346
munâ -0.4864740115930241 -0.21805051314750598 -0.1006756805400833 0.010400497603135158 0.31021001632606143 -0.26991751456058183 0.3846414343537983 -0.4649877644427169 -0.22106248678015433 0.25161591777813014
dara -0.16358639129459077 -0.32037290271587854 -0.13132659995517532 -0.18856131209826396 0.2667602046623459 -0.3516726003439621 0.15449071900737657 -0.5232347107399119 0.014200482148209686 0.5266596386910336
kerma 0.4125350605533761 0.4311356043194385 0.37986866086700627 0.622001761802897 0.0763356477745913 -0.2157363012502072 0.025798118978545316 0.0007683117366673899 0.14257986445323065 0.05200699482211063
tabid -0.017504413788335477 -0.2755804224949916 0.03234402107597757 0.2704170617200387 -0.19521133676154181 0.7975960836960178 -0.08275264178500213 0.04804984833691586 0.12840505769201246 0.2882005231668226
shimmat 0.03734516835897756 0.05391024860978452 0.2975469437875563 -0.009237397324493048 -0.2004067591086258 0.845544223463856 -0.15169424078042243 0.09104246493546317 0.06127271556866642 0.24013763782027397
sâtti -0.245379687968003 -0.0903795712645567 -0.1755551045738861 0.1736277190462693 -0.491745128513906 0.7255760420182064 0.02200212415682375 -0.08429759649293189 0.13524091983994013 0.11665148155639612
kurti -0.00920709228016754 -0.38017236010213173 -0.27845547629696077 -0.23621196524466734 0.09373285386551902 -0.3315180055848847 -0.23107287614342395 0.5087175226424486 -0.17371560435247269 -0.4671545594125636
winji -0.4436711366052369 -0.1962818480240033 0.0957451930142061 -0.17662673612224677 0.15209481365618988 -0.3529828295272378 0.3188234729775731 -0.45986134009685836 -0.20674050061367685 0.418570959796452
tamâya -0.45503332717362033 0.10604915347010781 -0.15638540489709643 -0.35444829396682526 0.1658526069044245 -0.37603698949719655 0.2926540601952848 -0.38470840987016675 -0.16702693822112305 0.36161915522911364
wâwâ 0.44773933447004083 0.4208072712841628 0.3055433773711314 0.599291415463112 0.1284396906388826 -0.23282673153516312 0.0267718979954135 0.13915196711082461 0.21253920265778667 -0.04031486764569371
